{"learner":{"attributes":{"best_iteration":"99","best_ntree_limit":"100","scikit_learn":"{\"use_label_encoder\": false, \"n_estimators\": 100, \"objective\": \"binary:logistic\", \"max_depth\": null, \"max_leaves\": null, \"max_bin\": null, \"grow_policy\": null, \"learning_rate\": null, \"verbosity\": null, \"booster\": null, \"tree_method\": \"hist\", \"gamma\": null, \"min_child_weight\": null, \"max_delta_step\": null, \"subsample\": null, \"sampling_method\": null, \"colsample_bytree\": null, \"colsample_bylevel\": null, \"colsample_bynode\": null, \"reg_alpha\": null, \"reg_lambda\": null, \"scale_pos_weight\": null, \"base_score\": null, \"missing\": NaN, \"num_parallel_tree\": null, \"random_state\": 42, \"n_jobs\": null, \"monotone_constraints\": null, \"interaction_constraints\": null, \"importance_type\": null, \"gpu_id\": null, \"validate_parameters\": null, \"predictor\": null, \"enable_categorical\": true, \"max_cat_to_onehot\": null, \"eval_metric\": null, \"early_stopping_rounds\": null, \"callbacks\": null, \"classes_\": [0, 1], \"n_classes_\": 2, \"_estimator_type\": \"classifier\"}"},"feature_names":["Study_ID","Histology","Smoking_History","Diagnosis_Age","Sex","MSI","Pan_2020_compound_muts","DCB_genes","NDB_genes","TMB_norm_log2"],"feature_types":["c","c","c","float","c","float","int","int","int","float"],"gradient_booster":{"model":{"gbtree_model_param":{"num_parallel_tree":"1","num_trees":"100","size_leaf_vector":"0"},"tree_info":[0,0,0,0,0,0,0,0,0,0,0,0,0,0,0,0,0,0,0,0,0,0,0,0,0,0,0,0,0,0,0,0,0,0,0,0,0,0,0,0,0,0,0,0,0,0,0,0,0,0,0,0,0,0,0,0,0,0,0,0,0,0,0,0,0,0,0,0,0,0,0,0,0,0,0,0,0,0,0,0,0,0,0,0,0,0,0,0,0,0,0,0,0,0,0,0,0,0,0,0],"trees":[{"base_weights":[-3.9130434E-1,-5.811966E-1,6.086956E-1,-6.375546E-1,3.3333337E-1,1.1666666E0,-0E0,-4.7953215E-1,-1.032258E0,4.1052634E-1,6.666667E-2,-8.235294E-1,3.2307696E-1,-7.047619E-1,-1.14285715E-1,-0E0,-3.692308E-1,1.5E-1,-4.1538465E-1,3.3333334E-1,-8.041237E-1,1.8181819E-1,-9.4736844E-1,1.20000005E-1,-1.5E-1,1.5E-1,-0E0,-2.6666668E-1,5.454546E-2,2.1290323E-1,-1.2857144E-1,-3.6E-1,-0E0],"categories":[0,2,3,3,0,1,0],"categories_nodes":[14,15,19,22],"categories_segments":[0,3,4,6],"categories_sizes":[3,1,2,1],"default_left":[0,1,0,0,0,0,1,0,0,0,0,0,0,1,0,0,0,0,0,0,0,0,0,0,0,0,0,0,0,0,0,0,0],"id":0,"left_children":[1,3,5,7,-1,9,11,13,15,-1,-1,17,-1,19,21,23,-1,-1,-1,25,27,29,31,-1,-1,-1,-1,-1,-1,-1,-1,-1,-1],"loss_changes":[1.3456336E1,6.287836E0,3.9057975E0,3.0757961E0,0E0,8.3918095E-1,6.6515837E0,3.4362583E0,3.17618E0,0E0,0E0,3.8484163E0,0E0,2.9756508E0,4.489132E0,9E-1,0E0,0E0,0E0,1.6666666E-1,2.1882763E0,4.7343946E0,1.1368423E0,0E0,0E0,0E0,0E0,0E0,0E0,0E0,0E0,0E0,0E0],"parents":[2147483647,0,0,1,1,2,2,3,3,5,5,6,6,7,7,8,8,11,11,13,13,14,14,15,15,19,19,20,20,21,21,22,22],"right_children":[2,4,6,8,-1,10,12,14,16,-1,-1,18,-1,20,22,24,-1,-1,-1,26,28,30,32,-1,-1,-1,-1,-1,-1,-1,-1,-1,-1],"split_conditions":[6.153301E-1,1.193E1,6.6E1,1E0,3.3333337E-1,1E0,7E1,1E0,1E0,4.1052634E-1,6.666667E-2,9.562885E-1,3.2307696E-1,4.8E1,NaN,NaN,-3.692308E-1,1.5E-1,-4.1538465E-1,NaN,2.0324548E-1,-1.4942613E-1,NaN,1.20000005E-1,-1.5E-1,1.5E-1,-0E0,-2.6666668E-1,5.454546E-2,2.1290323E-1,-1.2857144E-1,-3.6E-1,-0E0],"split_indices":[9,5,3,8,0,8,3,6,7,0,0,9,0,3,1,0,0,0,0,1,9,9,4,0,0,0,0,0,0,0,0,0,0],"split_type":[0,0,0,0,0,0,0,0,0,0,0,0,0,0,1,1,0,0,0,1,0,0,1,0,0,0,0,0,0,0,0,0,0],"sum_hessian":[6.8E1,5.75E1,1.05E1,5.625E1,1.25E0,5E0,5.5E0,4.175E1,1.45E1,3.75E0,1.25E0,3.25E0,2.25E0,2.525E1,1.65E1,2.5E0,1.2E1,1E0,2.25E0,2E0,2.325E1,1.275E1,3.75E0,1.5E0,1E0,1E0,1E0,2.15E1,1.75E0,6.75E0,6E0,2.75E0,1E0],"tree_param":{"num_deleted":"0","num_feature":"10","num_nodes":"33","size_leaf_vector":"0"}},{"base_weights":[-2.78572E-1,-4.227176E-1,4.8711514E-1,-4.6893755E-1,2.8256765E-1,3.2238376E-1,-7.7651883E-3,-7.885152E-2,-5.762383E-1,1.9619675E-1,-4.9515963E-1,-5.09335E-1,1.0635428E0,-3.2007694E-1,-9.307655E-1,-3.6043274E-1,1.8519664E-1,-2.9844728E-1,-2.3195837E-1,4.0199155E-1,7.4994065E-2,-4.8611516E-1,4.278116E-1,-3.6012232E-1,-8.82251E-2,-2.3794898E-1,6.433987E-2,-2.0320034E-1,1.7597225E-1,2.8932044E-1,-1.380746E-1,1.863775E-1,-2.6724198E-1],"categories":[0,1,0,2,3],"categories_nodes":[2,3],"categories_segments":[0,2],"categories_sizes":[2,3],"default_left":[0,1,0,0,0,0,0,0,1,0,1,0,0,0,0,0,0,0,0,0,0,0,0,0,0,0,0,0,0,0,0,0,0],"id":1,"left_children":[1,3,5,7,-1,-1,9,11,13,-1,15,17,19,21,23,-1,-1,-1,25,-1,-1,27,29,-1,31,-1,-1,-1,-1,-1,-1,-1,-1],"loss_changes":[7.6758485E0,4.067914E0,3.2609518E0,2.3101368E0,0E0,0E0,2.602579E0,7.0820007E0,3.6960135E0,0E0,4.38561E0,1.1610541E0,5.564394E-1,3.5676131E0,3.9659424E0,0E0,0E0,0E0,2.144725E0,0E0,0E0,5.03462E0,3.0395608E0,0E0,3.6423314E0,0E0,0E0,0E0,0E0,0E0,0E0,0E0,0E0],"parents":[2147483647,0,0,1,1,2,2,3,3,6,6,7,7,8,8,10,10,11,11,12,12,13,13,14,14,18,18,21,21,22,22,24,24],"right_children":[2,4,6,8,-1,-1,10,12,14,-1,16,18,20,22,24,-1,-1,-1,26,-1,-1,28,30,-1,32,-1,-1,-1,-1,-1,-1,-1,-1],"split_conditions":[6.153301E-1,1.193E1,NaN,NaN,2.8256765E-1,3.2238376E-1,6.1E1,7.3E1,6.9E1,1.9619675E-1,7E1,5.7E1,7.6E1,2E0,7.8E1,-3.6043274E-1,1.8519664E-1,-2.9844728E-1,-1.7528867E0,4.0199155E-1,7.4994065E-2,6.7E1,6.1E1,-3.6012232E-1,8.1E1,-2.3794898E-1,6.433987E-2,-2.0320034E-1,1.7597225E-1,2.8932044E-1,-1.380746E-1,1.863775E-1,-2.6724198E-1],"split_indices":[9,5,2,0,0,0,3,3,3,0,3,3,3,7,3,0,0,0,9,0,0,3,3,0,3,0,0,0,0,0,0,0,0],"split_type":[0,0,1,1,0,0,0,0,0,0,0,0,0,0,0,0,0,0,0,0,0,0,0,0,0,0,0,0,0,0,0,0,0],"sum_hessian":[6.668058E1,5.6493275E1,1.0187305E1,5.5277363E1,1.2159108E0,4.1221886E0,6.065117E0,1.22991905E1,4.2978172E1,2.4274573E0,3.6376595E0,9.33549E0,2.9637005E0,2.6055075E1,1.6923098E1,2.1761305E0,1.461529E0,2.4539034E0,6.8815866E0,1.729139E0,1.2345617E0,2.160793E1,4.4471455E0,1.2498421E1,4.424678E0,2.7047353E0,4.1768513E0,1.8651627E1,2.9563038E0,2.7185564E0,1.7285888E0,2.4684703E0,1.9562073E0],"tree_param":{"num_deleted":"0","num_feature":"10","num_nodes":"33","size_leaf_vector":"0"}},{"base_weights":[-1.9057754E-1,-2.8112128E-1,7.4820095E-1,-3.340996E-1,3.044239E-1,3.0658972E-1,1.9218406E-2,-6.513629E-2,-4.5172408E-1,-2.8088295E-1,2.098545E-1,-3.1438038E-1,-8.063569E-1,-1.5841134E-1,5.8135563E-1,-3.8697917E-2,-6.876687E-1,-9.6313417E-1,-2.9756093E-2,-1.8604577E-1,3.589623E-1,2.5002578E-1,-6.6371255E-2,6.61285E-2,-6.6056475E-2,-3.0124694E-1,-5.966378E-2,-3.387318E-1,-1.4754625E-1],"categories":[0,3],"categories_nodes":[3],"categories_segments":[0],"categories_sizes":[2],"default_left":[0,1,0,0,0,0,0,0,0,0,0,1,0,0,0,0,0,0,0,0,0,0,0,0,0,0,0,0,0],"id":2,"left_children":[1,3,5,7,-1,-1,-1,9,11,-1,13,15,17,19,21,23,25,27,-1,-1,-1,-1,-1,-1,-1,-1,-1,-1,-1],"loss_changes":[5.7515726E0,4.4707665E0,1.0597095E0,1.823586E0,0E0,0E0,0E0,4.745562E0,1.7231035E0,0E0,2.1785169E0,3.1524315E0,1.0896635E0,6.025172E0,1.7635689E0,9.34024E-1,1.821115E0,1.201849E-1,0E0,0E0,0E0,0E0,0E0,0E0,0E0,0E0,0E0,0E0,0E0],"parents":[2147483647,0,0,1,1,2,2,3,3,7,7,8,8,10,10,11,11,12,12,13,13,14,14,15,15,16,16,17,17],"right_children":[2,4,6,8,-1,-1,-1,10,12,-1,14,16,18,20,22,24,26,28,-1,-1,-1,-1,-1,-1,-1,-1,-1,-1,-1],"split_conditions":[1.3122945E0,1.193E1,6.6E1,NaN,3.044239E-1,3.0658972E-1,1.9218406E-2,5.7E1,1E0,-2.8088295E-1,-7.455292E-1,6.9E1,7.5E1,7.4E1,2.28307E-1,-1.1165115E0,1E0,-4.3032697E-1,-2.9756093E-2,-1.8604577E-1,3.589623E-1,2.5002578E-1,-6.6371255E-2,6.61285E-2,-6.6056475E-2,-3.0124694E-1,-5.966378E-2,-3.387318E-1,-1.4754625E-1],"split_indices":[9,5,3,0,0,0,0,3,8,0,9,3,3,3,9,9,6,9,0,0,0,0,0,0,0,0,0,0,0],"split_type":[0,0,0,1,0,0,0,0,0,0,0,0,0,0,0,0,0,0,0,0,0,0,0,0,0,0,0,0,0],"sum_hessian":[6.419063E1,5.918306E1,5.00757E0,5.757157E1,1.6114895E0,3.2237566E0,1.783813E0,1.7989672E1,3.9581898E1,3.7392836E0,1.4250388E1,2.9891779E1,9.69012E0,7.444405E0,6.8059826E0,1.7828596E1,1.2063184E1,7.6354165E0,2.054703E0,5.9567637E0,1.4876415E0,5.1501203E0,1.6558625E0,7.255241E0,1.0573354E1,6.682157E0,5.3810263E0,4.614703E0,3.020713E0],"tree_param":{"num_deleted":"0","num_feature":"10","num_nodes":"29","size_leaf_vector":"0"}},{"base_weights":[-1.4366393E-1,-2.1582776E-1,6.136175E-1,-2.5992748E-1,2.6484832E-1,8.195132E-1,-6.069876E-3,-2.19806E-1,-3.2449573E-1,2.926322E-1,5.8350567E-2,-2.7804986E-1,4.4731453E-1,-1.5361007E-1,-5.2889425E-1,1.9567337E-2,2.1799903E-1,-1.4760907E-1,4.4857E-3,3.6927562E-2,-2.332792E-1],"categories":[0,2,3],"categories_nodes":[14],"categories_segments":[0],"categories_sizes":[3],"default_left":[0,1,0,1,0,0,0,1,0,0,0,1,0,0,0,0,0,0,0,0,0],"id":3,"left_children":[1,3,5,7,-1,9,-1,11,-1,-1,-1,13,15,17,19,-1,-1,-1,-1,-1,-1],"loss_changes":[3.5652146E0,3.043978E0,7.6377845E-1,1.628983E0,0E0,2.3378634E-1,0E0,2.2707794E0,0E0,0E0,0E0,1.5238798E0,4.669569E-1,2.0484273E0,2.7941422E0,0E0,0E0,0E0,0E0,0E0,0E0],"parents":[2147483647,0,0,1,1,2,2,3,3,5,5,7,7,11,11,12,12,13,13,14,14],"right_children":[2,4,6,8,-1,10,-1,12,-1,-1,-1,14,16,18,20,-1,-1,-1,-1,-1,-1],"split_conditions":[1.3122945E0,1.193E1,1E0,8.2E1,2.6484832E-1,6.6E1,-6.069876E-3,7.8E1,-3.2449573E-1,2.926322E-1,5.8350567E-2,6.9E1,1E0,5.7E1,NaN,1.9567337E-2,2.1799903E-1,-1.4760907E-1,4.4857E-3,3.6927562E-2,-2.332792E-1],"split_indices":[9,5,8,3,0,3,0,3,0,0,0,3,6,3,0,0,0,0,0,0,0],"split_type":[0,0,0,0,0,0,0,0,0,0,0,0,0,0,1,0,0,0,0,0,0],"sum_hessian":[6.1815807E1,5.7090466E1,4.7253413E0,5.5621258E1,1.4692091E0,3.3456502E0,1.3796911E0,5.4240414E1,1.3808455E0,2.2289076E0,1.1167428E0,5.04215E1,3.8189092E0,3.4780056E1,1.5641446E1,2.1338043E0,1.6851046E0,1.0925705E1,2.3854351E1,4.4584603E0,1.1182985E1],"tree_param":{"num_deleted":"0","num_feature":"10","num_nodes":"21","size_leaf_vector":"0"}},{"base_weights":[-1.0231556E-1,-1.4157186E-1,2.556092E-1,-1.9757259E-1,4.7842264E-1,-1.5551348E-1,-2.4851894E-1,2.640858E-1,-4.615487E-3,-2.0980945E-1,1.777255E-1,-5.228645E-2,5.3355854E-2,-1.6206804E-1,-2.674154E-1,-6.67184E-2,3.1632182E-1],"categories":[],"categories_nodes":[],"categories_segments":[],"categories_sizes":[],"default_left":[1,0,0,1,0,1,0,0,0,0,0,0,0,0,0,0,0],"id":4,"left_children":[1,3,-1,5,7,9,-1,-1,11,13,-1,-1,-1,15,-1,-1,-1],"loss_changes":[2.3986685E0,2.1520805E0,0E0,1.3320091E0,1.013769E0,2.270484E0,0E0,0E0,1.3492984E-1,1.4828529E0,0E0,0E0,0E0,3.7540183E0,0E0,0E0,0E0],"parents":[2147483647,0,0,1,1,3,3,4,4,5,5,8,8,9,9,13,13],"right_children":[2,4,-1,6,8,10,-1,-1,12,14,-1,-1,-1,16,-1,-1,-1],"split_conditions":[1.193E1,1.3122945E0,2.556092E-1,8.1E1,6.1E1,7.8E1,-2.4851894E-1,2.640858E-1,6.8E1,9.2018473E-1,1.777255E-1,-5.228645E-2,5.3355854E-2,6.153301E-1,-2.674154E-1,-6.67184E-2,3.1632182E-1],"split_indices":[5,9,0,3,3,3,0,0,3,9,0,0,0,9,0,0,0],"split_type":[0,0,0,0,0,0,0,0,0,0,0,0,0,0,0,0,0],"sum_hessian":[5.9806076E1,5.82612E1,1.5448744E0,5.405962E1,4.2015796E0,5.1849186E1,2.2104325E0,1.8445842E0,2.3569953E0,4.9010742E1,2.838446E0,1.2445503E0,1.112445E0,4.6959232E1,2.0515082E0,4.5519062E1,1.4401714E0],"tree_param":{"num_deleted":"0","num_feature":"10","num_nodes":"17","size_leaf_vector":"0"}},{"base_weights":[-6.588323E-2,-4.0830752E-1,2.7792975E-2,4.1297033E-2,-2.3057756E-1,9.3695E-1,-1.1066956E-1,-2.8776622E-1,1.9808397E-1,1.0690262E0,7.865094E-2,-2.9685277E-1,2.1140715E-1,1.0112483E-1,-5.7547814E-1,4.4553605E-1,5.677791E-1,-1.4721118E-1,-7.0605797E-1,6.439078E-1,-2.0207126E-1,-5.688045E-2,-2.3925826E-1,2.7468517E-1,-2.086338E-3,-5.818281E-1,1.6093242E-1,-7.9945946E-1,-5.2439876E-2,2.7288717E-1,3.758173E-1,-6.5114844E-1,2.3455304E-1,-5.5951033E-2,-2.5917244E-1,1.3715088E-1,-8.530663E-2,-2.9809433E-1,-4.421399E-2,-1.455189E-1,1.733115E-1,-3.8916573E-2,-2.818084E-1,-7.812686E-2,1.7639494E-1],"categories":[2,3,1,2,0,1],"categories_nodes":[1,7,14,25],"categories_segments":[0,2,3,4],"categories_sizes":[2,1,1,2],"default_left":[0,0,0,0,0,0,0,0,0,0,0,0,0,0,0,0,0,0,0,0,0,0,0,0,0,0,0,1,0,0,0,0,0,0,0,0,0,0,0,0,0,0,0,0,0],"id":5,"left_children":[1,3,5,7,-1,9,11,13,-1,15,-1,17,19,-1,21,-1,23,25,27,29,31,-1,-1,-1,-1,33,35,37,-1,39,-1,41,43,-1,-1,-1,-1,-1,-1,-1,-1,-1,-1,-1,-1],"loss_changes":[1.9120325E0,2.1038094E0,6.07842E0,1.5423647E0,0E0,2.8821373E-1,2.5863032E0,1.0985118E0,0E0,2.0160723E-1,0E0,1.5545008E0,2.9913647E0,0E0,1.7562664E-1,0E0,7.8427815E-1,2.9187555E0,2.0703721E-1,1.4785221E0,1.9058526E0,0E0,0E0,0E0,0E0,8.389447E-1,1.8615571E0,5.70755E-1,0E0,1.7324878E0,0E0,5.803275E-1,1.0747937E0,0E0,0E0,0E0,0E0,0E0,0E0,0E0,0E0,0E0,0E0,0E0,0E0],"parents":[2147483647,0,0,1,1,2,2,3,3,5,5,6,6,7,7,9,9,11,11,12,12,14,14,16,16,17,17,18,18,19,19,20,20,25,25,26,26,27,27,29,29,31,31,32,32],"right_children":[2,4,6,8,-1,10,12,14,-1,16,-1,18,20,-1,22,-1,24,26,28,30,32,-1,-1,-1,-1,34,36,38,-1,40,-1,42,44,-1,-1,-1,-1,-1,-1,-1,-1,-1,-1,-1,-1],"split_conditions":[-1.7288505E0,NaN,-1.2812656E0,7.2E1,-2.3057756E-1,-1.291639E0,1.6779265E-1,NaN,1.9808397E-1,1E0,7.865094E-2,-1.4942613E-1,6.6E1,1.0112483E-1,NaN,4.4553605E-1,6.9E1,-7.066765E-1,2E0,6.3E1,7E1,-5.688045E-2,-2.3925826E-1,2.7468517E-1,-2.086338E-3,NaN,6.9E1,7.1E1,-5.2439876E-2,4.347579E-1,3.758173E-1,8.8865936E-1,6.153301E-1,-5.5951033E-2,-2.5917244E-1,1.3715088E-1,-8.530663E-2,-2.9809433E-1,-4.421399E-2,-1.455189E-1,1.733115E-1,-3.8916573E-2,-2.818084E-1,-7.812686E-2,1.7639494E-1],"split_indices":[9,0,9,3,0,9,9,0,0,7,0,9,3,0,2,0,3,9,7,3,3,0,0,0,0,2,3,3,0,9,0,9,9,0,0,0,0,0,0,0,0,0,0,0,0],"split_type":[0,1,0,0,0,0,0,1,0,0,0,0,0,0,1,0,0,0,0,0,0,0,0,0,0,1,0,0,0,0,0,0,0,0,0,0,0,0,0,0,0,0,0,0,0],"sum_hessian":[5.82538E1,1.1791693E1,4.6462105E1,5.639477E0,6.152216E0,5.3786445E0,4.108346E1,4.031403E0,1.6080736E0,4.0095825E0,1.369062E0,2.6083603E1,1.4999859E1,1.2169182E0,2.8144848E0,1.1183611E0,2.891221E0,2.0094885E1,5.988717E0,7.058908E0,7.9409504E0,1.7051506E0,1.1093343E0,1.4316483E0,1.4595729E0,7.9681478E0,1.2126738E1,4.6639066E0,1.3248107E0,5.2858615E0,1.7730465E0,3.6724424E0,4.268508E0,4.0097713E0,3.9583762E0,7.2661166E0,4.860621E0,3.190089E0,1.4738175E0,1.3464648E0,3.9393969E0,1.8235033E0,1.8489393E0,1.8878065E0,2.3807013E0],"tree_param":{"num_deleted":"0","num_feature":"10","num_nodes":"45","size_leaf_vector":"0"}},{"base_weights":[-4.8573926E-2,-8.095671E-2,2.2316824E-1,6.3263704E-3,-3.2673615E-1,-1.6845497E-1,1.9407442E-1,2.8096166E-1,-4.761311E-1,1.333522E-1,-4.436215E-1,2.8446195E-1,-1.680638E-1,1.703747E-1,-4.603921E-2,-5.6517637E-1,9.372511E-3,6.2320596E-1,-4.316482E-1,-3.3206757E-2,-8.299983E-1,5.8204865E-1,4.0557306E-2,-6.6780984E-1,1.5150756E-2,3.594382E-2,3.7920967E-1,3.1943034E-2,-1.9195585E-1,-8.610751E-2,1.9776656E-1,2.8012414E-4,-3.3812568E-1,-7.440598E-2,2.2408217E-1,-2.6862702E-1,6.671998E-2,-2.905738E-1,-1.0284511E-1],"categories":[0,1,0,3],"categories_nodes":[9,11,20],"categories_segments":[0,1,2],"categories_sizes":[1,1,2],"default_left":[1,0,0,0,0,0,1,0,0,0,0,0,0,0,0,0,0,0,0,0,0,0,0,0,0,0,0,0,0,0,0,0,0,0,0,0,0,0,0],"id":6,"left_children":[1,3,-1,5,7,9,11,13,15,17,19,21,-1,-1,-1,23,-1,25,27,29,31,33,35,37,-1,-1,-1,-1,-1,-1,-1,-1,-1,-1,-1,-1,-1,-1,-1],"loss_changes":[1.5297583E0,1.2016419E0,0E0,1.4189571E0,1.4658914E0,1.9205236E0,1.5796243E0,5.2649117E-1,5.665257E-1,3.4402363E0,1.8682377E0,1.3747548E0,0E0,0E0,0E0,6.900914E-1,0E0,1.9603343E0,7.30479E-1,1.3911675E0,1.5109134E0,1.3627617E0,2.1841555E0,5.450907E-1,0E0,0E0,0E0,0E0,0E0,0E0,0E0,0E0,0E0,0E0,0E0,0E0,0E0,0E0,0E0],"parents":[2147483647,0,0,1,1,3,3,4,4,5,5,6,6,7,7,8,8,9,9,10,10,11,11,15,15,17,17,18,18,19,19,20,20,21,21,22,22,23,23],"right_children":[2,4,-1,6,8,10,12,14,16,18,20,22,-1,-1,-1,24,-1,26,28,30,32,34,36,38,-1,-1,-1,-1,-1,-1,-1,-1,-1,-1,-1,-1,-1,-1,-1],"split_conditions":[1.193E1,1E0,2.2316824E-1,1E0,1E0,-1.291639E0,1.19E0,6.3E1,7.5E1,NaN,6.7E1,NaN,-1.680638E-1,1.703747E-1,-4.603921E-2,2E0,9.372511E-3,-1.831944E0,-3.291639E0,1.1282978E-1,NaN,5.7E1,-8.3195823E-1,6.3E1,1.5150756E-2,3.594382E-2,3.7920967E-1,3.1943034E-2,-1.9195585E-1,-8.610751E-2,1.9776656E-1,2.8012414E-4,-3.3812568E-1,-7.440598E-2,2.2408217E-1,-2.6862702E-1,6.671998E-2,-2.905738E-1,-1.0284511E-1],"split_indices":[5,8,0,6,7,9,5,3,3,4,3,2,0,0,0,7,0,9,9,9,0,3,9,3,0,0,0,0,0,0,0,0,0,0,0,0,0,0,0],"split_type":[0,0,0,0,0,0,0,0,0,1,0,1,0,0,0,0,0,0,0,0,1,0,0,0,0,0,0,0,0,0,0,0,0,0,0,0,0,0,0],"sum_hessian":[5.6264297E1,5.4918015E1,1.3462842E0,4.1245026E1,1.367299E1,2.1413342E1,1.9831682E1,2.5242734E0,1.1148717E1,1.04581E1,1.0955241E1,1.826574E1,1.5659418E0,1.3351072E0,1.1891661E0,9.387295E0,1.761422E0,5.546383E0,4.911717E0,5.8389616E0,5.11628E0,7.602992E0,1.0662748E1,7.9734507E0,1.4138442E0,3.7710478E0,1.7753352E0,1.5065329E0,3.4051843E0,4.70117E0,1.1377913E0,1.6100214E0,3.5062587E0,1.1764727E0,6.4265194E0,1.0962031E0,9.5665455E0,3.1125684E0,4.8608823E0],"tree_param":{"num_deleted":"0","num_feature":"10","num_nodes":"39","size_leaf_vector":"0"}},{"base_weights":[-3.922182E-2,-6.708352E-2,2.0124258E-1,-1.0664274E-1,3.2362214E-1,-7.369643E-2,-2.4685483E-1,2.5014976E-1,-1.4222457E-1,-4.1029956E-2,-2.0960267E-1,-1.3330323E-1,8.345655E-2,-8.394258E-2,2.5613844E-1,-1.4693034E-2,-1.9796096E-1],"categories":[3],"categories_nodes":[13],"categories_segments":[0],"categories_sizes":[1],"default_left":[1,0,0,1,0,0,0,0,1,0,0,0,0,0,0,0,0],"id":7,"left_children":[1,3,-1,5,7,9,-1,-1,11,13,-1,-1,-1,15,-1,-1,-1],"loss_changes":[1.1403052E0,8.72003E-1,0E0,1.1181321E0,1.3615971E0,9.6879363E-1,0E0,0E0,5.793426E-1,1.8953547E0,0E0,0E0,0E0,8.986465E-1,0E0,0E0,0E0],"parents":[2147483647,0,0,1,1,3,3,4,4,5,5,8,8,9,9,13,13],"right_children":[2,4,-1,6,8,10,-1,-1,12,14,-1,-1,-1,16,-1,-1,-1],"split_conditions":[1.193E1,1.228307E0,2.0124258E-1,8.2E1,6.1E1,9.2018473E-1,-2.4685483E-1,2.5014976E-1,6.7E1,6.153301E-1,-2.0960267E-1,-1.3330323E-1,8.345655E-2,NaN,2.5613844E-1,-1.4693034E-2,-1.9796096E-1],"split_indices":[5,9,0,3,3,9,0,0,3,9,0,0,0,1,0,0,0],"split_type":[0,0,0,0,0,0,0,0,0,0,0,0,0,1,0,0,0],"sum_hessian":[5.436694E1,5.3185455E1,1.1814852E0,4.8955708E1,4.2297482E0,4.7857124E1,1.0985832E0,1.6417367E0,2.5880115E0,4.6492687E1,1.3644347E0,1.4727404E0,1.1152712E0,4.5229816E1,1.2628706E0,4.3663925E1,1.5658922E0],"tree_param":{"num_deleted":"0","num_feature":"10","num_nodes":"17","size_leaf_vector":"0"}},{"base_weights":[-2.603691E-2,5.1252898E-2,-2.5495145E-1,6.0934396E-3,4.976929E-1,2.2881858E-1,-3.8139546E-1,-3.633261E-2,4.105285E-1,2.2795816E-1,-1.8892145E-3,1.3768075E-1,-3.6252033E-2,-5.756962E-1,-8.730007E-2,-2.9853567E-1,5.3267058E-2,2.066743E-1,-1.8347774E-2,-6.9792527E-1,1.5433586E-2,-4.2971528E-1,3.348436E-1,-2.4753001E-1,4.843578E-2,5.6252056E-1,-1.071796E-1,-4.801814E-2,-2.682645E-1,3.6538124E-2,-2.2224447E-1,2.1759683E-1,-6.3981295E-2,6.879195E-2,-1.0937277E-1,3.6877134E-1,4.884299E-2,-2.6519907E-1,1.7809195E-3],"categories":[0,0,1,1],"categories_nodes":[6,21,24],"categories_segments":[0,1,3],"categories_sizes":[1,2,1],"default_left":[0,0,0,1,0,0,0,0,0,0,0,0,0,0,0,0,0,0,0,0,0,0,0,0,0,0,0,0,0,0,0,0,0,0,0,0,0,0,0],"id":8,"left_children":[1,3,5,7,9,11,13,15,17,-1,-1,-1,-1,19,21,23,25,-1,-1,27,-1,29,31,-1,33,35,37,-1,-1,-1,-1,-1,-1,-1,-1,-1,-1,-1,-1],"loss_changes":[9.7646743E-1,8.34455E-1,9.382446E-1,6.7957807E-1,5.0734997E-1,3.3769548E-1,6.0139847E-1,8.611305E-1,5.357369E-1,0E0,0E0,0E0,0E0,5.4859877E-1,9.700742E-1,1.7417312E0,2.3205805E0,0E0,0E0,4.5507884E-1,0E0,7.068286E-1,8.228514E-1,0E0,5.73586E-1,1.6087065E0,1.9274552E0,0E0,0E0,0E0,0E0,0E0,0E0,0E0,0E0,0E0,0E0,0E0,0E0],"parents":[2147483647,0,0,1,1,2,2,3,3,4,4,5,5,6,6,7,7,8,8,13,13,14,14,15,15,16,16,19,19,21,21,22,22,24,24,25,25,26,26],"right_children":[2,4,6,8,10,12,14,16,18,-1,-1,-1,-1,20,22,24,26,-1,-1,28,-1,30,32,-1,34,36,38,-1,-1,-1,-1,-1,-1,-1,-1,-1,-1,-1,-1],"split_conditions":[1E0,1.228307E0,1E0,3.38E0,6.6E1,6.3E1,NaN,-1.7288505E0,-6.647778E-1,2.2795816E-1,-1.8892145E-3,1.3768075E-1,-3.6252033E-2,1.2752893E0,-3.022077E-1,6.2E1,-1.0159211E0,2.066743E-1,-1.8347774E-2,-8.3195823E-1,1.5433586E-2,NaN,-1.4942613E-1,-2.4753001E-1,NaN,5.8E1,-8.1424195E-1,-4.801814E-2,-2.682645E-1,3.6538124E-2,-2.2224447E-1,2.1759683E-1,-6.3981295E-2,6.879195E-2,-1.0937277E-1,3.6877134E-1,4.884299E-2,-2.6519907E-1,1.7809195E-3],"split_indices":[8,9,7,5,3,3,4,9,9,0,0,0,0,9,9,3,9,0,0,9,0,2,9,0,2,3,9,0,0,0,0,0,0,0,0,0,0,0,0],"split_type":[0,0,0,0,0,0,1,0,0,0,0,0,0,0,0,0,0,0,0,0,0,1,0,0,1,0,0,0,0,0,0,0,0,0,0,0,0,0,0],"sum_hessian":[5.3451675E1,4.054001E1,1.2911666E1,3.7736446E1,2.8035655E0,2.5076914E0,1.0403975E1,3.497741E1,2.759036E0,1.5102627E0,1.2933029E0,1.3238889E0,1.1838024E0,5.688334E0,4.715641E0,8.314399E0,2.666301E1,1.4454275E0,1.3136084E0,4.666058E0,1.022276E0,2.5937917E0,2.1218493E0,2.7551599E0,5.5592394E0,5.7875404E0,2.087547E1,1.7329447E0,2.933113E0,1.1549078E0,1.4388838E0,1.0503036E0,1.0715457E0,4.1754665E0,1.3837727E0,1.3913872E0,4.396153E0,1.7871774E0,1.9088291E1],"tree_param":{"num_deleted":"0","num_feature":"10","num_nodes":"39","size_leaf_vector":"0"}},{"base_weights":[-1.896188E-2,1.38594E-2,-1.4732546E-1,-2.6089964E-2,5.296971E-1,4.5405095E-3,-1.6954783E-1,2.1189366E-1,3.0431973E-2,-5.55242E-2,2.2209711E-1,-1.1205333E-2,-5.944785E-1,-1.5269756E-2,2.1740973E-1,-3.2188553E-2,-2.3879372E-1],"categories":[0,3,0,1],"categories_nodes":[0,12],"categories_segments":[0,2],"categories_sizes":[2,2],"default_left":[0,1,0,1,0,1,0,0,0,0,0,0,0,0,0,0,0],"id":9,"left_children":[1,3,-1,5,7,9,-1,-1,-1,11,-1,13,15,-1,-1,-1,-1],"loss_changes":[8.306596E-1,1.0582721E0,0E0,7.950306E-1,2.074517E-1,2.0919564E0,0E0,0E0,0E0,1.040325E0,0E0,1.2497686E0,2.3966277E-1,0E0,0E0,0E0,0E0],"parents":[2147483647,0,0,1,1,3,3,4,4,5,5,9,9,11,11,12,12],"right_children":[2,4,-1,6,8,10,-1,-1,-1,12,-1,14,16,-1,-1,-1,-1],"split_conditions":[NaN,1.3122945E0,-1.4732546E-1,8.1E1,6.6E1,7.8E1,-1.6954783E-1,2.1189366E-1,3.0431973E-2,9.2018473E-1,2.2209711E-1,6.153301E-1,NaN,-1.5269756E-2,2.1740973E-1,-3.2188553E-2,-2.3879372E-1],"split_indices":[1,9,0,3,3,3,0,0,0,9,0,9,2,0,0,0,0],"split_type":[1,0,0,0,0,0,0,0,0,0,0,0,1,0,0,0,0],"sum_hessian":[5.216666E1,4.968339E1,2.4832704E0,4.699338E1,2.6900086E0,4.5405003E1,1.5883812E0,1.4448682E0,1.2451406E0,4.2832928E1,2.5720737E0,4.052158E1,2.311348E0,3.9330948E1,1.1906323E0,1.1246578E0,1.1866903E0],"tree_param":{"num_deleted":"0","num_feature":"10","num_nodes":"17","size_leaf_vector":"0"}},{"base_weights":[-1.0230791E-2,-2.3089853E-1,4.967815E-2,-3.0468086E-2,-2.419372E-1,7.4992734E-1,-4.280158E-2,1.8993503E-1,-2.0659529E-1,3.0929393E-1,3.8714325E-1,-2.2986579E-1,1.0255643E-1,-4.7251397E-1,1.9184414E-1,2.0132506E-1,-1.6178934E-2,-5.4147464E-1,-3.3041652E-2,2.1091375E-1,-3.712255E-1,-1.9182977E-1,-2.5932992E-1,-2.3179671E-1,-1.5863596E-1,3.5040194E-1,-3.2381344E-1,3.4241983E-1,-2.12467E-1,-1.9640027E-1,5.73082E-2,-1.1203159E-1,1.8246109E-2,1.1322842E-1,-1.554481E-1,-9.160127E-2,2.3324853E-1,9.435318E-2,-1.8496574E-1,1.703135E-1,-1.073435E-2,-1.8103918E-1,9.034884E-2],"categories":[0,2,3,2,0,1,3],"categories_nodes":[12,13,26],"categories_segments":[0,3,4],"categories_sizes":[3,1,3],"default_left":[0,0,0,0,0,0,0,0,0,0,0,0,0,0,0,0,0,0,0,0,0,0,0,0,0,0,0,0,1,0,0,0,0,0,0,0,0,0,0,0,0,0,0],"id":10,"left_children":[1,3,5,7,-1,9,11,-1,13,-1,15,17,19,21,-1,-1,-1,23,25,27,29,31,-1,-1,33,35,37,39,41,-1,-1,-1,-1,-1,-1,-1,-1,-1,-1,-1,-1,-1,-1],"loss_changes":[7.017809E-1,1.2820506E0,2.744893E0,1.2341318E0,0E0,1.0465002E-1,1.0554767E0,0E0,2.1502447E0,0E0,5.06859E-1,1.0187919E0,1.2101388E0,5.8495533E-1,0E0,0E0,0E0,4.5079994E-1,1.3872204E0,1.1072857E0,8.36797E-1,2.6415253E-1,0E0,0E0,9.081804E-1,1.7517824E0,1.5051352E0,1.2609253E0,1.1900378E0,0E0,0E0,0E0,0E0,0E0,0E0,0E0,0E0,0E0,0E0,0E0,0E0,0E0,0E0],"parents":[2147483647,0,0,1,1,2,2,3,3,5,5,6,6,8,8,10,10,11,11,12,12,13,13,17,17,18,18,19,19,20,20,21,21,24,24,25,25,26,26,27,27,28,28],"right_children":[2,4,6,8,-1,10,12,-1,14,-1,16,18,20,22,-1,-1,-1,24,26,28,30,32,-1,-1,34,36,38,40,42,-1,-1,-1,-1,-1,-1,-1,-1,-1,-1,-1,-1,-1,-1],"split_conditions":[-1.7288505E0,-1.913685E0,-1.291639E0,5.29E0,-2.419372E-1,1E0,1E0,1.8993503E-1,7.4E1,3.0929393E-1,6.9E1,-7.041884E-1,NaN,NaN,1.9184414E-1,2.0132506E-1,-1.6178934E-2,6.5E1,6.6E1,1E0,1.4968844E-1,-2.4721327E0,-2.5932992E-1,-2.3179671E-1,6.8E1,5.8E1,NaN,2.0811918E-1,4.0880075E-1,-1.9640027E-1,5.73082E-2,-1.1203159E-1,1.8246109E-2,1.1322842E-1,-1.554481E-1,-9.160127E-2,2.3324853E-1,9.435318E-2,-1.8496574E-1,1.703135E-1,-1.073435E-2,-1.8103918E-1,9.034884E-2],"split_indices":[9,9,9,5,0,7,6,0,3,0,3,9,1,2,0,0,0,3,3,8,9,9,0,0,3,3,2,9,9,0,0,0,0,0,0,0,0,0,0,0,0,0,0],"split_type":[0,0,0,0,0,0,0,0,0,0,0,0,1,1,0,0,0,0,0,0,0,0,0,0,0,0,1,0,0,0,0,0,0,0,0,0,0,0,0,0,0,0,0],"sum_hessian":[5.121723E1,1.032652E1,4.0890713E1,8.440254E0,1.8862659E0,3.9409618E0,3.6949753E1,1.2260976E0,7.2141566E0,1.1827887E0,2.7581732E0,1.5902771E1,2.104698E1,5.8249254E0,1.3892312E0,1.3607273E0,1.3974459E0,5.478399E0,1.0424372E1,1.7580927E1,3.4660542E0,4.2620196E0,1.562906E0,2.7808976E0,2.697501E0,4.4073205E0,6.0170517E0,1.3560219E1,4.0207076E0,2.195099E0,1.270955E0,2.2014775E0,2.060542E0,1.0628917E0,1.6346092E0,1.8507866E0,2.5565338E0,1.8684604E0,4.1485915E0,8.183988E0,5.376231E0,2.1835756E0,1.8371319E0],"tree_param":{"num_deleted":"0","num_feature":"10","num_nodes":"43","size_leaf_vector":"0"}},{"base_weights":[-9.54752E-3,1.7496318E-2,-4.007564E-1,-1.6577533E-2,4.5995012E-1,-1.4895143E-1,-3.220425E-2,6.788926E-2,-1.8873772E-1,1.9116859E-1,2.3162583E-2,-4.182498E-2,3.999338E-1,-6.1958224E-1,-3.4536883E-2,1.0210961E-1,-2.015683E-1,6.8538195E-1,-1.18469335E-2,-2.3667704E-1,-8.1804626E-2,3.0940226E-1,-3.4798828E-1,-2.682016E-2,1.4183445E-1,2.4777779E-1,3.1473894E-2,-9.252941E-2,1.1795008E-1,5.0925105E-3,2.6855958E-1,3.1577375E-2,-1.8575165E-1],"categories":[0,3,0,0,1],"categories_nodes":[0,17,18,22],"categories_segments":[0,2,3,4],"categories_sizes":[2,1,1,1],"default_left":[0,1,0,0,0,0,0,0,0,0,0,0,0,0,1,0,0,0,0,0,0,1,0,0,0,0,0,0,0,0,0,0,0],"id":11,"left_children":[1,3,5,7,9,-1,-1,11,13,-1,-1,15,17,19,21,23,-1,25,27,-1,-1,29,31,-1,-1,-1,-1,-1,-1,-1,-1,-1,-1],"loss_changes":[5.395587E-1,7.318768E-1,3.9312184E-2,6.7548215E-1,1.8623573E-1,0E0,0E0,1.1572185E0,9.9265766E-1,0E0,0E0,2.2847233E0,9.331589E-1,1.7736912E-2,1.4336592E0,1.51599E0,0E0,2.9391885E-1,6.26368E-1,0E0,0E0,1.0800984E0,9.139644E-1,0E0,0E0,0E0,0E0,0E0,0E0,0E0,0E0,0E0,0E0],"parents":[2147483647,0,0,1,1,2,2,3,3,4,4,7,7,8,8,11,11,12,12,13,13,14,14,15,15,17,17,18,18,21,21,22,22],"right_children":[2,4,6,8,10,-1,-1,12,14,-1,-1,16,18,20,22,24,-1,26,28,-1,-1,30,32,-1,-1,-1,-1,-1,-1,-1,-1,-1,-1],"split_conditions":[NaN,1.3122945E0,-4.3032697E-1,-1.4942613E-1,6.6E1,-1.4895143E-1,-3.220425E-2,7.3E1,1.8003166E-2,1.9116859E-1,2.3162583E-2,6.9E1,-1.1502047E0,5.9E1,6.6E1,-7.066765E-1,-2.015683E-1,NaN,NaN,-2.3667704E-1,-8.1804626E-2,6.3E1,NaN,-2.682016E-2,1.4183445E-1,2.4777779E-1,3.1473894E-2,-9.252941E-2,1.1795008E-1,5.0925105E-3,2.6855958E-1,3.1577375E-2,-1.8575165E-1],"split_indices":[1,9,9,9,3,0,0,3,9,0,0,3,9,3,3,9,0,4,4,0,0,3,4,0,0,0,0,0,0,0,0,0,0],"split_type":[1,0,0,0,0,0,0,0,0,0,0,0,0,0,0,0,0,1,1,0,0,0,1,0,0,0,0,0,0,0,0,0,0],"sum_hessian":[4.9336254E1,4.7039726E1,2.296528E0,4.456988E1,2.4698424E0,1.2096035E0,1.0869246E0,3.0306362E1,1.426352E1,1.2335705E0,1.2362721E0,2.3436504E1,6.869858E0,2.9639845E0,1.1299536E1,1.9760342E1,3.6761622E0,3.6648996E0,3.2049584E0,1.135483E0,1.8285013E0,5.3939085E0,5.905627E0,1.3529202E1,6.2311397E0,2.6100826E0,1.054817E0,1.9877971E0,1.2171613E0,4.28422E0,1.109688E0,2.4397616E0,3.4658654E0],"tree_param":{"num_deleted":"0","num_feature":"10","num_nodes":"33","size_leaf_vector":"0"}},{"base_weights":[-5.429484E-3,-2.6053261E-2,1.4629965E-1,-5.3383783E-3,-1.4086385E-1,2.4987867E-1,-4.6469357E-2,8.076742E-1,-4.4891936E-1,2.0990326E-1,-1.7273802E-1,9.1084495E-2,3.2540557E-1,5.2053114E-5,-2.0978339E-1,5.8542743E-2,5.193042E-1,8.6339764E-2,-2.8010848E-1,8.716149E-2,-1.9849513E-1,2.334983E-1,2.184797E-2,-7.254571E-2,1.2062297E-1,-1.8310162E-1,-5.7825305E-2],"categories":[0,2,3,0,3],"categories_nodes":[5,6],"categories_segments":[0,3],"categories_sizes":[3,2],"default_left":[1,1,0,1,0,0,0,0,0,0,0,0,0,0,0,0,0,0,0,0,0,0,0,0,0,0,0],"id":12,"left_children":[1,3,-1,5,-1,7,9,11,13,15,17,-1,-1,-1,-1,19,21,23,25,-1,-1,-1,-1,-1,-1,-1,-1],"loss_changes":[5.144284E-1,4.4126487E-1,0E0,5.0667334E-1,0E0,2.9750764E0,1.378341E0,2.4098873E-1,4.068973E-1,6.3143295E-1,8.1213677E-1,0E0,0E0,0E0,0E0,1.9661288E0,4.655193E-1,1.0363657E0,4.6687627E-1,0E0,0E0,0E0,0E0,0E0,0E0,0E0,0E0],"parents":[2147483647,0,0,1,1,3,3,5,5,6,6,7,7,8,8,9,9,10,10,15,15,16,16,17,17,18,18],"right_children":[2,4,-1,6,-1,8,10,12,14,16,18,-1,-1,-1,-1,20,22,24,26,-1,-1,-1,-1,-1,-1,-1,-1],"split_conditions":[9.2E0,5.29E0,1.4629965E-1,5.5E1,-1.4086385E-1,NaN,NaN,2E0,-1.1165115E0,7.3E1,-1.1502047E0,9.1084495E-2,3.2540557E-1,5.2053114E-5,-2.0978339E-1,6.9E1,7.6E1,-1.831944E0,-7.539414E-1,8.716149E-2,-1.9849513E-1,2.334983E-1,2.184797E-2,-7.254571E-2,1.2062297E-1,-1.8310162E-1,-5.7825305E-2],"split_indices":[5,5,0,3,0,2,0,7,9,3,9,0,0,0,0,3,3,9,9,0,0,0,0,0,0,0,0],"split_type":[0,0,0,0,0,1,1,0,0,0,0,0,0,0,0,0,0,0,0,0,0,0,0,0,0,0,0],"sum_hessian":[4.833616E1,4.7304794E1,1.031367E0,4.6160732E1,1.144061E0,5.702378E0,4.0458355E1,3.0844772E0,2.6179006E0,1.3132372E1,2.7325981E1,1.8372998E0,1.2471774E0,1.2947274E0,1.323173E0,9.616933E0,3.5154393E0,8.063987E0,1.9261995E1,7.725049E0,1.891884E0,1.7543774E0,1.7610619E0,4.0690064E0,3.9949806E0,2.7771358E0,1.648486E1],"tree_param":{"num_deleted":"0","num_feature":"10","num_nodes":"27","size_leaf_vector":"0"}},{"base_weights":[1.4400596E-3,-1.7988506E-1,5.0105695E-2,1.2293957E-1,-3.204898E-1,5.554147E-1,-2.0371288E-2,-4.652579E-1,1.04461074E-1,2.1404733E-1,3.7616737E-2,-1.7460072E-1,9.65942E-2,-2.4085556E-1,-2.4096061E-1,1.1626184E-1,-2.5709173E-1,1.772146E-1,-2.61896E-1,-4.9413455E-1,7.639282E-2,-2.689281E-1,-9.779906E-2,2.7831334E-1,-1.6458471E-1,-1.5877688E-1,5.585185E-2,-2.3525168E-1,-2.78073E-2,-1.820915E-1,1.3277831E-2,1.3399252E-1,-1.6532947E-3,-1.9799909E-1,4.8555117E-2],"categories":[0,2,3,1],"categories_nodes":[12,19],"categories_segments":[0,3],"categories_sizes":[3,1],"default_left":[0,0,0,0,0,0,0,0,0,0,0,0,0,0,0,0,0,0,0,0,0,0,0,0,1,0,0,0,0,0,0,0,0,0,0],"id":13,"left_children":[1,3,5,-1,7,9,11,13,-1,-1,-1,15,17,19,-1,-1,21,23,25,27,-1,-1,29,31,33,-1,-1,-1,-1,-1,-1,-1,-1,-1,-1],"loss_changes":[4.350144E-1,9.963566E-1,1.3946147E0,0E0,1.0318413E0,2.3613226E-1,6.492072E-1,3.991506E-1,0E0,0E0,0E0,8.172085E-1,6.4116824E-1,8.944328E-1,0E0,0E0,1.3478311E0,6.469627E-1,5.994953E-1,4.3878973E-1,0E0,0E0,9.2425203E-1,6.6163886E-1,8.506528E-1,0E0,0E0,0E0,0E0,0E0,0E0,0E0,0E0,0E0,0E0],"parents":[2147483647,0,0,1,1,2,2,4,4,5,5,6,6,7,7,11,11,12,12,13,13,16,16,17,17,18,18,19,19,22,22,23,23,24,24],"right_children":[2,4,6,-1,8,10,12,14,-1,-1,-1,16,18,20,-1,-1,22,24,26,28,-1,-1,30,32,34,-1,-1,-1,-1,-1,-1,-1,-1,-1,-1],"split_conditions":[-1.7288505E0,5.29E0,-1.291639E0,1.2293957E-1,7.5E1,7.2E1,1E0,-2.338904E0,1.04461074E-1,2.1404733E-1,3.7616737E-2,5.3E1,NaN,-2.4721327E0,-2.4096061E-1,1.1626184E-1,5.8E1,1E0,1.4968844E-1,NaN,7.639282E-2,-2.689281E-1,-1.0658695E0,2.0811918E-1,-1.5020463E-1,-1.5877688E-1,5.585185E-2,-2.3525168E-1,-2.78073E-2,-1.820915E-1,1.3277831E-2,1.3399252E-1,-1.6532947E-3,-1.9799909E-1,4.8555117E-2],"split_indices":[9,5,9,0,3,3,6,9,0,0,0,3,1,9,0,0,3,8,9,0,0,0,9,9,9,0,0,0,0,0,0,0,0,0,0],"split_type":[0,0,0,0,0,0,0,0,0,0,0,0,1,0,0,0,0,0,0,1,0,0,0,0,0,0,0,0,0,0,0,0,0,0,0],"sum_hessian":[4.7275898E1,9.432954E0,3.7842945E1,1.4475435E0,7.98541E0,3.7898092E0,3.4053135E1,6.8143682E0,1.1710416E0,2.2891426E0,1.5006666E0,1.44744835E1,1.9578651E1,5.1243773E0,1.6899912E0,1.3790311E0,1.3095452E1,1.6396849E1,3.1818018E0,3.3928432E0,1.731534E0,1.6889911E0,1.1406461E1,1.2797341E1,3.5995078E0,1.8792624E0,1.3025393E0,1.4162441E0,1.9765991E0,1.7742878E0,9.632174E0,7.673026E0,5.1243157E0,1.0238446E0,2.575663E0],"tree_param":{"num_deleted":"0","num_feature":"10","num_nodes":"35","size_leaf_vector":"0"}},{"base_weights":[-1.0321299E-2,-3.137028E-2,2.6272398E-1,-4.9510467E-1,9.120378E-3,1.1752207E-1,-5.984339E-3,-2.1838741E-1,-1.3735403E-2,1.8758515E-1,-6.688036E-2,-7.3487476E-2,4.0548155E-1,-5.10555E-1,2.0349912E-2,3.496533E-1,-5.708552E-1,2.3045042E-1,1.8091384E-1,-1.484552E-1,-2.3161659E-1,3.0902892E-1,-1.0800392E-1,2.3770561E-2,1.7048277E-1,-3.4629013E-2,-2.1665715E-1,-1.325731E-1,1.4157332E-1,-1.3938862E-1,8.099613E-2,-7.1777254E-2,1.4780834E-1,-1.31475E-1,4.658064E-3],"categories":[1,0,0,1],"categories_nodes":[2,13,15],"categories_segments":[0,1,2],"categories_sizes":[1,1,2],"default_left":[1,0,0,0,0,0,0,0,0,0,0,0,0,0,0,0,0,0,0,0,0,0,0,0,0,0,0,0,0,0,0,0,0,0,0],"id":14,"left_children":[1,3,5,7,9,-1,-1,-1,-1,11,13,15,17,19,21,23,25,-1,27,29,-1,31,33,-1,-1,-1,-1,-1,-1,-1,-1,-1,-1,-1,-1],"loss_changes":[2.7965197E-1,8.445416E-1,1.3496718E-1,3.4443283E-1,5.8392763E-1,0E0,0E0,0E0,0E0,7.60491E-1,1.1823549E0,1.6075519E0,4.4376242E-1,3.601364E-1,1.0066894E0,2.053361E-1,1.5477002E-1,0E0,1.2464676E0,5.6739885E-1,0E0,9.5810664E-1,7.788341E-1,0E0,0E0,0E0,0E0,0E0,0E0,0E0,0E0,0E0,0E0,0E0,0E0],"parents":[2147483647,0,0,1,1,2,2,3,3,4,4,9,9,10,10,11,11,12,12,13,13,14,14,15,15,16,16,18,18,19,19,21,21,22,22],"right_children":[2,4,6,8,10,-1,-1,-1,-1,12,14,16,18,20,22,24,26,-1,28,30,-1,32,34,-1,-1,-1,-1,-1,-1,-1,-1,-1,-1,-1,-1],"split_conditions":[4.39E0,-3.171794E0,NaN,6.8E1,-1.1165115E0,1.1752207E-1,-5.984339E-3,-2.1838741E-1,-1.3735403E-2,-1.7288505E0,-7.066765E-1,-2.291639E0,5.8E1,NaN,-2.9163897E-1,NaN,-1.913685E0,2.3045042E-1,6.5E1,6.4E1,-2.3161659E-1,5.7E1,1E0,2.3770561E-2,1.7048277E-1,-3.4629013E-2,-2.1665715E-1,-1.325731E-1,1.4157332E-1,-1.3938862E-1,8.099613E-2,-7.1777254E-2,1.4780834E-1,-1.31475E-1,4.658064E-3],"split_indices":[5,9,1,3,9,0,0,0,0,9,9,9,3,4,9,0,9,0,3,3,0,3,6,0,0,0,0,0,0,0,0,0,0,0,0],"split_type":[0,0,1,0,0,0,0,0,0,0,0,0,0,1,0,1,0,0,0,0,0,0,0,0,0,0,0,0,0,0,0,0,0,0,0],"sum_hessian":[4.622376E1,4.3737183E1,2.4865768E0,2.6106064E0,4.1126575E1,1.442395E0,1.044182E0,1.3110447E0,1.2995617E0,1.1844692E1,2.9281883E1,5.689981E0,6.1547112E0,4.013792E0,2.5268091E1,3.234872E0,2.4551086E0,1.4279149E0,4.726796E0,2.3405433E0,1.6732485E0,7.343742E0,1.792435E1,2.0551949E0,1.1796772E0,1.0519962E0,1.4031125E0,1.3400557E0,3.3867407E0,1.2703184E0,1.070225E0,1.766783E0,5.5769587E0,4.1859565E0,1.3738394E1],"tree_param":{"num_deleted":"0","num_feature":"10","num_nodes":"35","size_leaf_vector":"0"}},{"base_weights":[-1.3189562E-2,5.3601347E-2,-1.3398471E-1,1.1430133E-1,-3.3593345E-1,-2.2590894E-1,1.9590373E-1,3.3398367E-2,2.2089185E-1,4.328073E-2,-2.3298353E-1,-2.2028734E-1,-1.2929466E-1,-1.3720943E-1,3.1846514E-1,1.8683742E-1,-2.3941801E-1,-3.0957585E-2,-2.0281366E-1,4.4863325E-1,3.4489244E-2,1.0443486E-1,-2.1636412E-2,2.6385829E-2,-5.3575635E-1,4.1135196E-2,-1.283632E-1,1.8379751E-1,-2.2890475E-2,-1.1628412E-1,1.6262674E-1,-1.3567513E-1,1.0263652E-1,2.7606832E-3,-2.8053355E-1],"categories":[0,0,3],"categories_nodes":[15,19],"categories_segments":[0,1],"categories_sizes":[1,2],"default_left":[1,0,0,0,0,0,0,0,0,0,0,0,0,0,0,0,0,0,0,0,0,0,0,0,0,0,0,0,0,0,0,0,0,0,0],"id":15,"left_children":[1,3,5,7,9,11,-1,13,-1,-1,-1,-1,15,17,19,21,23,25,-1,27,29,-1,-1,31,33,-1,-1,-1,-1,-1,-1,-1,-1,-1,-1],"loss_changes":[3.8262638E-1,7.638235E-1,1.3668612E0,1.3487004E0,1.0410576E0,6.828224E-1,0E0,1.2691219E0,0E0,0E0,0E0,0E0,5.502203E-1,9.215407E-1,3.4437323E-1,2.0523274E-1,8.9688617E-1,1.045896E0,0E0,6.1432314E-1,1.0978012E0,0E0,0E0,1.1915654E0,1.1720793E0,0E0,0E0,0E0,0E0,0E0,0E0,0E0,0E0,0E0,0E0],"parents":[2147483647,0,0,1,1,2,2,3,3,4,4,5,5,7,7,12,12,13,13,14,14,15,15,16,16,17,17,19,19,20,20,23,23,24,24],"right_children":[2,4,6,8,10,12,-1,14,-1,-1,-1,-1,16,18,20,22,24,26,-1,28,30,-1,-1,32,34,-1,-1,-1,-1,-1,-1,-1,-1,-1,-1],"split_conditions":[6.9E1,9.2018473E-1,9.872989E-1,4.347579E-1,6.6E1,7E1,1.9590373E-1,6.4E1,2.2089185E-1,4.328073E-2,-2.3298353E-1,-2.2028734E-1,1E0,6.3E1,-2.9163897E-1,NaN,7.6E1,-1.5020463E-1,-2.0281366E-1,NaN,1.6779265E-1,1.0443486E-1,-2.1636412E-2,-4.3032697E-1,-6.647778E-1,4.1135196E-2,-1.283632E-1,1.8379751E-1,-2.2890475E-2,-1.1628412E-1,1.6262674E-1,-1.3567513E-1,1.0263652E-1,2.7606832E-3,-2.8053355E-1],"split_indices":[3,9,9,9,3,3,0,3,0,0,0,0,7,3,9,4,3,9,0,2,9,0,0,9,9,0,0,0,0,0,0,0,0,0,0],"split_type":[0,0,0,0,0,0,0,0,0,0,0,0,0,0,0,1,0,0,0,1,0,0,0,0,0,0,0,0,0,0,0,0,0,0,0],"sum_hessian":[4.5534927E1,2.9680202E1,1.5854724E1,2.6290071E1,3.3901296E0,1.48349E1,1.0198239E0,2.4196566E1,2.0935059E0,1.9441882E0,1.4459413E0,1.3150264E0,1.3519874E1,1.546168E1,8.734886E0,3.3128955E0,1.0206978E1,1.3798281E1,1.663399E0,5.591871E0,3.1430151E0,1.829313E0,1.4835825E0,5.8609223E0,4.346056E0,1.0153393E1,3.6448882E0,4.133251E0,1.4586196E0,1.8450845E0,1.2979307E0,2.157665E0,3.703257E0,2.2511306E0,2.0949254E0],"tree_param":{"num_deleted":"0","num_feature":"10","num_nodes":"35","size_leaf_vector":"0"}},{"base_weights":[-1.658658E-2,7.783574E-2,-7.647793E-2,-1.4502203E-2,5.154105E-1,4.3037632E-1,-1.6679537E-1,-2.0406252E-1,8.607401E-2,4.7761638E-2,1.9352113E-1,2.8882671E-2,2.263983E-1,-1.8669797E-1,-9.32273E-2,2.0144941E-1,-2.6277944E-1,-3.194601E-2,4.6181545E-2,1.2587366E-1,-1.8808772E-1,3.4512448E-1,-6.806762E-2,-1.5523678E-1,5.5620015E-2,-2.6280764E-1,1.7300801E-1,3.214386E-2,2.5194994E-1,-1.2063569E-1,5.955052E-2,-2.4372213E-2,-1.2917913E-1,1.418626E-1,-7.175425E-2],"categories":[3],"categories_nodes":[0],"categories_segments":[0],"categories_sizes":[1],"default_left":[0,0,0,0,0,0,0,0,0,0,0,0,0,0,0,1,0,0,0,0,0,0,0,0,0,0,0,0,0,0,0,0,0,0,0],"id":16,"left_children":[1,3,5,7,9,11,13,-1,15,-1,-1,17,-1,-1,19,21,23,-1,-1,-1,25,27,29,-1,-1,31,33,-1,-1,-1,-1,-1,-1,-1,-1],"loss_changes":[2.63353E-1,7.412758E-1,1.3698312E0,1.1277583E0,4.4725E-2,5.729272E-1,7.7267617E-1,0E0,6.4705163E-1,0E0,0E0,6.854552E-2,0E0,0E0,1.1742663E0,4.749403E-1,5.64199E-1,0E0,0E0,0E0,5.767945E-1,8.2469505E-1,5.151883E-1,0E0,0E0,4.7418904E-1,6.0495055E-1,0E0,0E0,0E0,0E0,0E0,0E0,0E0,0E0],"parents":[2147483647,0,0,1,1,2,2,3,3,4,4,5,5,6,6,8,8,11,11,14,14,15,15,16,16,20,20,21,21,22,22,25,25,26,26],"right_children":[2,4,6,8,10,12,14,-1,16,-1,-1,18,-1,-1,20,22,24,-1,-1,-1,26,28,30,-1,-1,32,34,-1,-1,-1,-1,-1,-1,-1,-1],"split_conditions":[NaN,6.152516E-1,5.5E1,5.5E1,2E0,5E1,5.7E1,-2.0406252E-1,-1.5020463E-1,4.7761638E-2,1.9352113E-1,-1.5679735E0,2.263983E-1,-1.8669797E-1,6E1,6.9E1,2.0324548E-1,-3.194601E-2,4.6181545E-2,1.2587366E-1,7.8E1,6.8E1,7.4E1,-1.5523678E-1,5.5620015E-2,6.8E1,8.1E1,3.214386E-2,2.5194994E-1,-1.2063569E-1,5.955052E-2,-2.4372213E-2,-1.2917913E-1,1.418626E-1,-7.175425E-2],"split_indices":[0,9,3,3,7,3,3,0,9,0,0,9,0,0,3,3,9,0,0,0,3,3,3,0,0,3,3,0,0,0,0,0,0,0,0],"split_type":[1,0,0,0,0,0,0,0,0,0,0,0,0,0,0,0,0,0,0,0,0,0,0,0,0,0,0,0,0,0,0,0,0,0,0],"sum_hessian":[4.4516644E1,1.7161263E1,2.735538E1,1.4969273E1,2.19199E0,3.5678334E0,2.3787546E1,1.2083282E0,1.3760944E1,1.1795019E0,1.0124879E0,2.080747E0,1.4870868E0,2.2703598E0,2.1517187E1,1.0658443E1,3.102501E0,1.0704747E0,1.0102721E0,2.8245938E0,1.8692593E1,6.769308E0,3.8891356E0,1.8797605E0,1.2227404E0,1.5713304E1,2.979289E0,5.3920574E0,1.3772506E0,1.5004057E0,2.3887298E0,8.259637E0,7.453667E0,1.6393977E0,1.3398913E0],"tree_param":{"num_deleted":"0","num_feature":"10","num_nodes":"35","size_leaf_vector":"0"}},{"base_weights":[-7.2261407E-3,1.7904475E-2,-1.08040646E-1,-1.3513167E-2,3.6584714E-1,1.0893365E-2,-1.430798E-1,1.9017012E-1,-7.0496183E-3,-1.2788467E-1,3.624461E-2,6.2395163E-2,-1.2094338E-1,7.84099E-3,1.4141728E-1],"categories":[0,3],"categories_nodes":[0],"categories_segments":[0],"categories_sizes":[2],"default_left":[0,1,0,1,0,1,0,0,0,0,1,0,0,0,0],"id":17,"left_children":[1,3,-1,5,7,9,-1,-1,-1,-1,11,13,-1,-1,-1],"loss_changes":[3.990831E-1,4.6714023E-1,0E0,4.5471603E-1,3.840599E-1,4.4472638E-1,0E0,0E0,0E0,0E0,4.5640367E-1,5.2583647E-1,0E0,0E0,0E0],"parents":[2147483647,0,0,1,1,3,3,4,4,5,5,10,10,11,11],"right_children":[2,4,-1,6,8,10,-1,-1,-1,-1,12,14,-1,-1,-1],"split_conditions":[NaN,1.228307E0,-1.08040646E-1,9.2018473E-1,6.6E1,-4.5868316E0,-1.430798E-1,1.9017012E-1,-7.0496183E-3,-1.2788467E-1,8.1E1,7.8E1,-1.2094338E-1,7.84099E-3,1.4141728E-1],"split_indices":[1,9,0,9,3,9,0,0,0,0,3,3,0,0,0],"split_type":[1,0,0,0,0,0,0,0,0,0,0,0,0,0,0],"sum_hessian":[4.327136E1,4.128101E1,1.9903481E0,3.8743786E1,2.5372252E0,3.7733025E1,1.0107607E0,1.1306733E0,1.406552E0,1.2013315E0,3.6531693E1,3.5289413E1,1.2422786E0,3.339295E1,1.8964667E0],"tree_param":{"num_deleted":"0","num_feature":"10","num_nodes":"15","size_leaf_vector":"0"}},{"base_weights":[-9.049943E-3,-1.6256507E-1,3.232861E-2,3.475696E-2,-5.420041E-1,3.949234E-1,-1.9908644E-2,-1.3371526E-1,2.6702932E-1,-5.0272614E-2,-1.9012024E-1,1.5513515E-1,2.4258943E-2,-2.3881674E-1,4.4974193E-2,-1.4734362E-1,1.2507555E-1,2.3352547E-1,-9.0182476E-2,-4.1139534E-1,1.2959312E-1,1.1756401E-1,-3.1909558E-1,-7.2209895E-2,1.4404686E-1,3.448201E-3,-5.771946E-1,3.3552393E-1,-3.1753983E-2,-5.723895E-1,6.823433E-2,-2.6369047E-1,-3.9659083E-2,-4.465712E-2,1.549656E-1,-1.431181E-1,3.4171294E-2,-2.1898103E-1,-4.4444695E-2],"categories":[1,1],"categories_nodes":[3,29],"categories_segments":[0,1],"categories_sizes":[1,1],"default_left":[0,0,0,0,0,0,0,1,1,0,0,0,0,0,0,0,0,0,0,0,0,0,0,0,0,0,0,0,0,0,0,0,0,0,0,0,0,0,0],"id":18,"left_children":[1,3,5,7,9,11,13,15,17,-1,-1,-1,-1,19,21,-1,23,-1,-1,25,-1,27,29,-1,-1,-1,31,33,35,37,-1,-1,-1,-1,-1,-1,-1,-1,-1],"loss_changes":[2.8392297E-1,7.286147E-1,6.781697E-1,3.1652752E-1,7.266104E-3,1.3104415E-1,4.6361473E-1,5.0781214E-1,1.2066222E0,0E0,0E0,0E0,0E0,1.0399636E0,7.0974797E-1,0E0,5.826398E-1,0E0,0E0,4.579183E-1,0E0,7.246618E-1,7.528461E-1,0E0,0E0,0E0,5.0732374E-1,8.66577E-1,9.5807505E-1,1.1628854E-1,0E0,0E0,0E0,0E0,0E0,0E0,0E0,0E0,0E0],"parents":[2147483647,0,0,1,1,2,2,3,3,4,4,5,5,6,6,7,7,8,8,13,13,14,14,16,16,19,19,21,21,22,22,26,26,27,27,28,28,29,29],"right_children":[2,4,6,8,10,12,14,16,18,-1,-1,-1,-1,20,22,-1,24,-1,-1,26,-1,28,30,-1,-1,-1,32,34,36,38,-1,-1,-1,-1,-1,-1,-1,-1,-1],"split_conditions":[-1.7288505E0,-2.291639E0,-1.291639E0,NaN,-1.913685E0,7.2E1,-7.066765E-1,5.8E1,6.3E1,-5.0272614E-2,-1.9012024E-1,1.5513515E-1,2.4258943E-2,7.7E1,7.6E1,-1.4734362E-1,1E0,2.3352547E-1,-9.0182476E-2,5.8E1,1.2959312E-1,-1.4942613E-1,5.2786726E-1,-7.2209895E-2,1.4404686E-1,3.448201E-3,-1.042511E0,5.8E1,2.7878394E-2,NaN,6.823433E-2,-2.6369047E-1,-3.9659083E-2,-4.465712E-2,1.549656E-1,-1.431181E-1,3.4171294E-2,-2.1898103E-1,-4.4444695E-2],"split_indices":[9,9,9,4,9,3,9,3,3,0,0,0,0,3,3,0,7,0,0,3,0,9,9,0,0,0,9,3,9,2,0,0,0,0,0,0,0,0,0],"split_type":[0,0,0,1,0,0,0,0,0,0,0,0,0,0,0,0,0,0,0,0,0,0,0,0,0,0,0,0,0,1,0,0,0,0,0,0,0,0,0],"sum_hessian":[4.2869213E1,8.479903E0,3.438931E1,6.1763678E0,2.3035352E0,3.504351E0,3.088496E1,3.82577E0,2.3505976E0,1.0095458E0,1.2939894E0,2.0573344E0,1.4470165E0,6.4483027E0,2.4436657E1,1.2296232E0,2.5961468E0,1.0412229E0,1.3093748E0,5.4363647E0,1.0119381E0,2.093886E1,3.4977973E0,1.437489E0,1.1586577E0,1.7932235E0,3.6431413E0,8.00577E0,1.2933089E1,2.3577943E0,1.1400031E0,1.5898024E0,2.053339E0,2.2263594E0,5.779411E0,2.6269083E0,1.0306181E1,1.1938643E0,1.1639299E0],"tree_param":{"num_deleted":"0","num_feature":"10","num_nodes":"39","size_leaf_vector":"0"}},{"base_weights":[-2.111979E-2,2.9186642E-2,-1.7482245E-1,6.799292E-2,-1.7759608E-1,-2.9881793E-1,1.1083189E-1,1.9107561E-1,-4.8890654E-2,1.1694399E-1,-4.3189928E-1,1.09426744E-1,-4.9792555E-1,3.5855055E-1,-3.7609133E-1,-2.3610157E-1,9.757292E-2,-4.3681003E-2,9.282735E-2,-1.6686921E-1,-3.1455882E-2,-6.6627584E-2,1.055648E-1,-1.8725319E-1,-2.660276E-1,9.890157E-2,5.1054E-1,-2.9766893E-2,-1.3968833E-1,-1.0862787E-1,3.3489686E-1,-1.812466E-1,3.937515E-2,1.4113404E-1,-7.91825E-2,2.0971751E-1,7.6502144E-2,-9.848354E-2,7.711506E-2,1.4688309E-1,-5.157675E-2],"categories":[0,0,3,1,1,0,0],"categories_nodes":[3,5,9,10,11,24],"categories_segments":[0,1,3,4,5,6],"categories_sizes":[1,2,1,1,1,1],"default_left":[0,1,0,0,0,0,0,1,1,0,0,0,0,0,0,0,1,0,0,0,0,0,0,0,0,0,1,0,0,0,0,0,0,0,0,0,0,0,0,0,0],"id":19,"left_children":[1,3,5,7,9,11,-1,13,15,17,19,21,23,25,27,-1,29,-1,-1,-1,-1,-1,-1,-1,31,33,35,-1,-1,37,39,-1,-1,-1,-1,-1,-1,-1,-1,-1,-1],"loss_changes":[3.3946055E-1,2.8038147E-1,8.396562E-1,4.247594E-1,4.6697965E-1,8.148117E-1,0E0,1.4901755E0,1.764031E0,2.1501358E-1,7.167351E-2,3.9052564E-1,2.3305893E-2,4.044392E-1,4.65343E-2,0E0,7.172165E-1,0E0,0E0,0E0,0E0,0E0,0E0,0E0,6.196643E-1,8.651929E-1,1.6044307E-1,0E0,0E0,7.429853E-1,6.105629E-1,0E0,0E0,0E0,0E0,0E0,0E0,0E0,0E0,0E0,0E0],"parents":[2147483647,0,0,1,1,2,2,3,3,4,4,5,5,7,7,8,8,9,9,10,10,11,11,12,12,13,13,14,14,16,16,24,24,25,25,26,26,29,29,30,30],"right_children":[2,4,6,8,10,12,-1,14,16,18,20,22,24,26,28,-1,30,-1,-1,-1,-1,-1,-1,-1,32,34,36,-1,-1,38,40,-1,-1,-1,-1,-1,-1,-1,-1,-1,-1],"split_conditions":[1E0,7.6E1,7.5E1,NaN,-6.647778E-1,NaN,1.1083189E-1,2E0,1E0,NaN,NaN,NaN,-4.3032697E-1,-7.066765E-1,6.5E1,-2.3610157E-1,6.4E1,-4.3681003E-2,9.282735E-2,-1.6686921E-1,-3.1455882E-2,-6.6627584E-2,1.055648E-1,-1.8725319E-1,NaN,1E0,-3.022077E-1,-2.9766893E-2,-1.3968833E-1,2E0,7.3E1,-1.812466E-1,3.937515E-2,1.4113404E-1,-7.91825E-2,2.0971751E-1,7.6502144E-2,-9.848354E-2,7.711506E-2,1.4688309E-1,-5.157675E-2],"split_indices":[8,3,3,4,9,0,0,7,7,4,2,4,9,9,3,0,3,0,0,0,0,0,0,0,4,7,9,0,0,7,3,0,0,0,0,0,0,0,0,0,0],"split_type":[0,0,0,1,0,1,0,0,0,1,1,1,0,0,0,0,0,0,0,0,0,0,0,0,1,0,0,0,0,0,0,0,0,0,0,0,0,0,0,0,0],"sum_hessian":[4.224211E1,3.243601E1,9.806101E0,2.7875826E1,4.5601845E0,8.353865E0,1.4522369E0,1.3268674E1,1.4607152E1,2.3632042E0,2.1969802E0,2.8862963E0,5.467568E0,1.0527809E1,2.7408643E0,1.694451E0,1.2912702E1,1.1026752E0,1.260529E0,1.0840812E0,1.112899E0,1.254696E0,1.6316004E0,2.4448955E0,3.0226727E0,4.4966826E0,6.031127E0,1.1849371E0,1.5559273E0,7.199574E0,5.713127E0,1.3515862E0,1.6710864E0,2.0751786E0,2.4215038E0,2.4718451E0,3.5592816E0,4.561755E0,2.6378188E0,4.4030056E0,1.3101213E0],"tree_param":{"num_deleted":"0","num_feature":"10","num_nodes":"41","size_leaf_vector":"0"}},{"base_weights":[-1.4248553E-2,9.953314E-2,-3.4815133E-2,-7.4229557E-3,-1.3696024E-1,1.103138E-1,-9.250422E-2,2.8641524E-2,1.6250193E-1,-3.7307286E-1,7.3338195E-4,1.0832195E-1,-2.7059442E-1,3.6801293E-2,-7.1391094E-1,2.6292565E-1,-1.51513E-1,5.3177144E-2,-7.308319E-2,-1.3768113E-1,1.9652708E-2,-5.458446E-2,9.114641E-2,-2.7678266E-1,-5.3552967E-2,-1.0852804E-1,1.5856007E-1,-1.3361473E-1,2.1091226E-2],"categories":[3,0,1,2],"categories_nodes":[2,3,11],"categories_segments":[0,1,3],"categories_sizes":[1,2,1],"default_left":[1,0,0,0,0,0,1,0,0,0,0,0,0,0,1,0,0,0,0,0,0,0,0,0,0,0,0,0,0],"id":20,"left_children":[1,-1,3,5,-1,7,9,11,-1,13,15,17,19,21,23,25,27,-1,-1,-1,-1,-1,-1,-1,-1,-1,-1,-1,-1],"loss_changes":[3.1390983E-1,0E0,4.703285E-1,4.061186E-1,0E0,5.8466583E-1,6.146946E-1,3.9601526E-1,0E0,8.4497213E-1,7.833886E-1,3.551667E-1,2.5289032E-1,2.6624125E-1,1.9830263E-1,1.3872213E0,8.4082997E-1,0E0,0E0,0E0,0E0,0E0,0E0,0E0,0E0,0E0,0E0,0E0,0E0],"parents":[2147483647,0,0,2,2,3,3,5,5,6,6,7,7,9,9,10,10,11,11,12,12,13,13,14,14,15,15,16,16],"right_children":[2,-1,4,6,-1,8,10,12,-1,14,16,18,20,22,24,26,28,-1,-1,-1,-1,-1,-1,-1,-1,-1,-1,-1,-1],"split_conditions":[4E1,9.953314E-2,NaN,NaN,-1.3696024E-1,5.2786726E-1,5.8E1,-3.5801277E-1,1.6250193E-1,5.5E1,6.6E1,NaN,7.2E1,1.8003166E-2,1.1282978E-1,-8.3195823E-1,7E1,5.3177144E-2,-7.308319E-2,-1.3768113E-1,1.9652708E-2,-5.458446E-2,9.114641E-2,-2.7678266E-1,-5.3552967E-2,-1.0852804E-1,1.5856007E-1,-1.3361473E-1,2.1091226E-2],"split_indices":[3,0,1,2,0,9,3,9,0,3,3,0,3,9,9,9,3,0,0,0,0,0,0,0,0,0,0,0,0],"split_type":[0,0,1,1,0,0,0,0,0,0,0,1,0,0,0,0,0,0,0,0,0,0,0,0,0,0,0,0,0],"sum_hessian":[4.1486652E1,1.4785582E0,4.0008095E1,3.8523457E1,1.4846363E0,1.603601E1,2.2487448E1,1.4379783E1,1.6562271E0,4.8603797E0,1.7627068E1,1.1859773E1,2.5200105E0,2.6117053E0,2.2486744E0,6.2083445E0,1.1418723E1,1.0332261E1,1.5275111E0,1.3807913E0,1.1392192E0,1.6107426E0,1.0009629E0,1.097616E0,1.1510584E0,1.7441807E0,4.464164E0,4.4781127E0,6.940611E0],"tree_param":{"num_deleted":"0","num_feature":"10","num_nodes":"29","size_leaf_vector":"0"}},{"base_weights":[-1.6115425E-2,2.7383918E-2,-1.5141702E-1,6.613121E-2,-1.7429213E-1,-2.5698075E-1,8.4917106E-2,-2.3545779E-3,2.6323816E-1,8.328115E-2,-3.881692E-1,4.926336E-2,-4.1100287E-1,5.656448E-2,-1.5374231E-1,4.091294E-1,-9.038679E-2,8.649957E-2,-4.8591394E-2,-1.4860614E-1,-2.9822467E-2,-6.602713E-2,7.7082075E-2,-1.8076569E-1,-2.463611E-1,2.1494874E-1,-7.6222084E-2,1.3251159E-1,2.2845043E-1,3.4523115E-2,-4.8450074E-1,1.3698331E-2,1.7539184E-1,-2.4110235E-1,2.1729235E-2,1.238307E-1,-1.1922609E-1,-2.7362151E-2,-1.961556E-1],"categories":[0,3,2,3,1,0,0],"categories_nodes":[5,8,9,10,11,13],"categories_segments":[0,2,3,4,5,6],"categories_sizes":[2,1,1,1,1,1],"default_left":[0,1,0,0,0,0,0,0,0,0,0,0,0,0,0,1,0,0,0,0,0,0,0,0,0,0,1,0,0,0,0,0,0,0,0,0,0,0,0],"id":21,"left_children":[1,3,5,7,9,11,-1,13,15,17,19,21,23,25,-1,27,-1,-1,-1,-1,-1,-1,-1,-1,29,31,33,35,-1,-1,37,-1,-1,-1,-1,-1,-1,-1,-1],"loss_changes":[2.4980748E-1,2.6496327E-1,5.455031E-1,3.7764972E-1,3.3542156E-1,4.361313E-1,0E0,6.817759E-1,7.1715665E-1,2.1362801E-1,4.9260646E-2,2.7154794E-1,3.9942265E-2,4.4481203E-1,0E0,4.989575E-1,0E0,0E0,0E0,0E0,0E0,0E0,0E0,0E0,4.7786027E-1,5.7109714E-1,1.3363085E0,8.558924E-1,0E0,0E0,1.5004885E-1,0E0,0E0,0E0,0E0,0E0,0E0,0E0,0E0],"parents":[2147483647,0,0,1,1,2,2,3,3,4,4,5,5,7,7,8,8,9,9,10,10,11,11,12,12,13,13,15,15,24,24,25,25,26,26,27,27,30,30],"right_children":[2,4,6,8,10,12,-1,14,16,18,20,22,24,26,-1,28,-1,-1,-1,-1,-1,-1,-1,-1,30,32,34,36,-1,-1,38,-1,-1,-1,-1,-1,-1,-1,-1],"split_conditions":[1E0,7.6E1,7.5E1,7.1E1,-6.647778E-1,NaN,8.4917106E-2,6.9E1,NaN,NaN,NaN,NaN,-9.5933753E-1,NaN,-1.5374231E-1,2.7878394E-2,-9.038679E-2,8.649957E-2,-4.8591394E-2,-1.4860614E-1,-2.9822467E-2,-6.602713E-2,7.7082075E-2,-1.8076569E-1,1E0,1.4968844E-1,1E0,-1.0033159E-1,2.2845043E-1,3.4523115E-2,6.3E1,1.3698331E-2,1.7539184E-1,-2.4110235E-1,2.1729235E-2,1.238307E-1,-1.1922609E-1,-2.7362151E-2,-1.961556E-1],"split_indices":[8,3,3,3,9,0,0,3,1,0,2,4,9,4,0,9,0,0,0,0,0,0,0,0,6,9,7,9,0,0,3,0,0,0,0,0,0,0,0],"split_type":[0,0,0,0,0,1,0,0,1,1,1,1,0,1,0,0,0,0,0,0,0,0,0,0,0,0,0,0,0,0,0,0,0,0,0,0,0,0,0],"sum_hessian":[4.0739838E1,3.1432064E1,9.307773E0,2.693016E1,4.5019026E0,7.8170066E0,1.490766E0,2.071922E1,6.210941E0,2.3193314E0,2.1825712E0,2.8434649E0,4.9735417E0,1.937098E1,1.3482412E0,5.1542068E0,1.0567343E0,1.1675297E0,1.1518018E0,1.0699668E0,1.1126043E0,1.2118894E0,1.6315755E0,1.069488E0,3.9040537E0,8.55183E0,1.0819148E1,3.658377E0,1.4958297E0,1.7558564E0,2.1481974E0,6.636415E0,1.9154153E0,1.0880835E0,9.731065E0,2.5374978E0,1.1208792E0,1.1096845E0,1.038513E0],"tree_param":{"num_deleted":"0","num_feature":"10","num_nodes":"39","size_leaf_vector":"0"}},{"base_weights":[-2.318189E-2,8.413237E-2,-4.1591294E-2,-1.6265273E-2,-1.2746899E-1,-3.910493E-2,9.671419E-2,1.0831096E-2,-2.4724592E-1,-2.3187065E-2,1.3118558E-1,6.8794247E-3,-4.0310156E-1,9.190947E-3,-8.780938E-2,4.90117E-2,-3.8185313E-2,-3.5074754E-3,-1.830435E-1],"categories":[3,1],"categories_nodes":[2,12],"categories_segments":[0,1],"categories_sizes":[1,1],"default_left":[1,0,0,0,0,0,0,0,0,0,0,0,0,0,0,0,0,0,0],"id":22,"left_children":[1,-1,3,5,-1,7,-1,9,11,13,-1,15,17,-1,-1,-1,-1,-1,-1],"loss_changes":[2.4080405E-1,0E0,3.7675202E-1,3.073881E-1,0E0,3.8304755E-1,0E0,4.5221692E-1,2.8489435E-1,4.3212864E-1,0E0,9.82912E-2,3.520282E-1,0E0,0E0,0E0,0E0,0E0,0E0],"parents":[2147483647,0,0,2,2,3,3,5,5,7,7,8,8,9,9,11,11,12,12],"right_children":[2,-1,4,6,-1,8,-1,10,12,14,-1,16,18,-1,-1,-1,-1,-1,-1],"split_conditions":[4E1,8.413237E-2,NaN,1.3122945E0,-1.2746899E-1,2.28307E-1,9.671419E-2,1.4968844E-1,6.4E1,-1.4942613E-1,1.3118558E-1,2E0,NaN,9.190947E-3,-8.780938E-2,4.90117E-2,-3.8185313E-2,-3.5074754E-3,-1.830435E-1],"split_indices":[3,0,1,9,0,9,0,9,3,9,0,7,4,0,0,0,0,0,0],"split_type":[0,0,1,0,0,0,0,0,0,0,0,0,1,0,0,0,0,0,0],"sum_hessian":[3.99946E1,1.4726616E0,3.8521935E1,3.7112263E1,1.4096732E0,3.5596046E1,1.5162164E0,2.947301E1,6.1230373E0,2.817141E1,1.3015996E0,2.6910665E0,3.4319708E0,2.4220667E1,3.9507425E0,1.141674E0,1.5493925E0,1.5528393E0,1.8791316E0],"tree_param":{"num_deleted":"0","num_feature":"10","num_nodes":"19","size_leaf_vector":"0"}},{"base_weights":[-1.7543172E-2,2.1018814E-2,-1.3733403E-1,-7.9928385E-3,9.258221E-2,-2.2803457E-1,6.868878E-2,-3.4489974E-1,3.46709E-2,-7.13555E-2,-1.6825107E-1,-1.5656629E-1,4.575276E-3,1.9770901E-1,-5.0388295E-2,-9.2803605E-2,8.526697E-2,5.0639796E-1,-1.03136756E-1,-1.7956597E-1,3.6016036E-2,1.0949E-1,-6.588948E-2,1.9087383E-1,6.4683564E-2,4.2819183E-2,-1.6144559E-1,4.1227378E-2,-7.3051505E-2],"categories":[0,0,1],"categories_nodes":[7,13,18],"categories_segments":[0,1,2],"categories_sizes":[1,1,1],"default_left":[0,1,0,0,0,0,0,0,0,0,0,0,0,0,0,0,0,0,0,0,0,0,0,0,0,0,0,0,0],"id":23,"left_children":[1,3,5,7,-1,9,-1,11,13,15,-1,-1,-1,17,19,-1,21,23,25,-1,27,-1,-1,-1,-1,-1,-1,-1,-1],"loss_changes":[1.9082114E-1,2.6648512E-1,3.8577574E-1,4.3912992E-1,0E0,4.0572324E-1,0E0,2.2670719E-1,3.8837844E-1,2.857304E-1,0E0,0E0,0E0,9.3989706E-1,9.0862536E-1,0E0,5.048724E-1,4.7338247E-2,6.8341184E-1,0E0,5.1879776E-1,0E0,0E0,0E0,0E0,0E0,0E0,0E0,0E0],"parents":[2147483647,0,0,1,1,2,2,3,3,5,5,7,7,8,8,9,9,13,13,14,14,16,16,17,17,18,18,20,20],"right_children":[2,4,6,8,-1,10,-1,12,14,16,-1,-1,-1,18,20,-1,22,24,26,-1,28,-1,-1,-1,-1,-1,-1,-1,-1],"split_conditions":[1E0,4.39E0,7.5E1,-2.5679736E0,9.258221E-2,6.8E1,6.868878E-2,NaN,-1.0159211E0,-9.1562015E-1,-1.6825107E-1,-1.5656629E-1,4.575276E-3,NaN,-7.066765E-1,-9.2803605E-2,1E0,1E0,NaN,-1.7956597E-1,7.3E1,1.0949E-1,-6.588948E-2,1.9087383E-1,6.4683564E-2,4.2819183E-2,-1.6144559E-1,4.1227378E-2,-7.3051505E-2],"split_indices":[8,5,3,9,0,3,0,4,9,9,0,0,0,4,9,0,6,7,2,0,3,0,0,0,0,0,0,0,0],"split_type":[0,0,0,0,0,0,0,1,0,0,0,0,0,1,0,0,0,0,1,0,0,0,0,0,0,0,0,0,0],"sum_hessian":[3.9683987E1,3.0643913E1,9.040073E0,2.8718979E1,1.9249352E0,7.5484285E0,1.4916447E0,2.4317553E0,2.6287224E1,5.9579225E0,1.590506E0,1.3293805E0,1.1023749E0,8.558417E0,1.7728806E1,1.9776924E0,3.9802303E0,3.8869178E0,4.6714997E0,1.6069119E0,1.6121895E1,1.9731472E0,2.0070832E0,1.8657581E0,2.02116E0,3.4138894E0,1.2576101E0,1.2203056E1,3.918838E0],"tree_param":{"num_deleted":"0","num_feature":"10","num_nodes":"29","size_leaf_vector":"0"}},{"base_weights":[-2.1359505E-2,-1.4848462E-1,1.390404E-2,4.2505044E-2,-1.5627404E-1,-1.3128944E-1,4.8311476E-2,1.9559318E-1,-1.4476357E-1,4.0783584E-1,-6.1824536E-3,-8.920405E-2,1.5950945E-1,7.711757E-2,-1.5855725E-1,1.7568843E-1,3.999978E-2,1.5990676E-1,-8.990601E-2,3.3951905E-2,-7.433919E-2,1.3408612E-2,3.6981454E-1,-1.3764185E-1,-1.9469077E-2,4.406572E-2,-8.91175E-2,3.6287397E-2,1.4242245E-1,4.920668E-2,-4.8501708E-2],"categories":[0,2,3,0,0,1,3],"categories_nodes":[8,9,10,11],"categories_segments":[0,3,4,6],"categories_sizes":[3,1,2,1],"default_left":[0,0,0,1,0,0,0,0,0,0,0,0,0,0,0,0,0,0,1,0,0,0,0,0,0,0,0,0,0,0,0],"id":24,"left_children":[1,3,5,7,-1,-1,9,11,13,15,17,19,-1,-1,-1,-1,-1,21,23,-1,-1,25,27,-1,29,-1,-1,-1,-1,-1,-1],"loss_changes":[1.8251938E-1,6.5000874E-1,5.2493685E-1,2.220965E-1,0E0,0E0,6.104919E-1,4.4414094E-1,6.9329965E-1,1.21985674E-1,4.0279192E-1,1.2753329E-1,0E0,0E0,0E0,0E0,0E0,2.9398146E-1,4.9025124E-1,0E0,0E0,3.2389557E-1,4.593289E-2,0E0,4.7467542E-1,0E0,0E0,0E0,0E0,0E0,0E0],"parents":[2147483647,0,0,1,1,2,2,3,3,6,6,7,7,8,8,9,9,10,10,11,11,17,17,18,18,21,21,22,22,24,24],"right_children":[2,4,6,8,-1,-1,10,12,14,16,18,20,-1,-1,-1,-1,-1,22,24,-1,-1,26,28,-1,30,-1,-1,-1,-1,-1,-1],"split_conditions":[-1.7288505E0,-2.291639E0,1.193E1,6.3E1,-1.5627404E-1,-1.3128944E-1,-1.291639E0,6.2E1,NaN,NaN,NaN,NaN,1.5950945E-1,7.711757E-2,-1.5855725E-1,1.7568843E-1,3.999978E-2,-1.2701099E-2,-7.066765E-1,3.3951905E-2,-7.433919E-2,1E0,7E1,-1.3764185E-1,-1.0033159E-1,4.406572E-2,-8.91175E-2,3.6287397E-2,1.4242245E-1,4.920668E-2,-4.8501708E-2],"split_indices":[9,9,5,3,0,0,9,3,0,4,2,2,0,0,0,0,0,9,9,0,0,8,3,0,9,0,0,0,0,0,0],"split_type":[0,0,0,0,0,0,0,0,1,1,1,1,0,0,0,0,0,0,0,0,0,0,0,0,0,0,0,0,0,0,0],"sum_hessian":[3.9254204E1,7.827033E0,3.1427172E1,5.7593713E0,2.0676615E0,1.3954405E0,3.003173E1,3.144421E0,2.6149504E0,3.0993922E0,2.6932339E1,2.0997775E0,1.0446436E0,1.4386988E0,1.1762516E0,1.1931766E0,1.9062155E0,8.721283E0,1.8211056E1,1.0483708E0,1.0514066E0,5.76304E0,2.9582431E0,2.0357072E0,1.6175348E1,4.398785E0,1.3642548E0,1.5158545E0,1.4423887E0,6.995414E0,9.179935E0],"tree_param":{"num_deleted":"0","num_feature":"10","num_nodes":"31","size_leaf_vector":"0"}},{"base_weights":[-1.5341039E-2,7.5074874E-2,-2.9107597E-2,-1.17082514E-1,-3.574962E-3,-3.5815556E-2,2.4390149E-1,1.1622595E-2,-4.7363213E-1,1.5199777E-1,-5.1178332E-2,5.0091475E-2,-3.0369064E-1,-1.4009464E-2,-2.0278026E-1,1.7538159E-3,1.182399E-1,-1.5881807E-1,1.2609228E-2],"categories":[],"categories_nodes":[],"categories_segments":[],"categories_sizes":[],"default_left":[0,0,0,0,1,0,0,0,0,0,0,0,0,0,0,0,0,0,0],"id":25,"left_children":[1,-1,3,-1,5,7,9,11,13,-1,-1,15,17,-1,-1,-1,-1,-1,-1],"loss_changes":[1.5224224E-1,0E0,3.5445085E-1,0E0,3.0434853E-1,7.044179E-1,5.654787E-1,3.953309E-1,2.5463706E-1,0E0,0E0,4.3592334E-1,2.9919052E-1,0E0,0E0,0E0,0E0,0E0,0E0],"parents":[2147483647,0,0,2,2,4,4,5,5,6,6,7,7,8,8,11,11,12,12],"right_children":[2,-1,4,-1,6,8,10,12,14,-1,-1,16,18,-1,-1,-1,-1,-1,-1],"split_conditions":[-4.0018687E0,7.5074874E-2,-3.171794E0,-1.17082514E-1,7.8E1,7.6E1,8.1E1,9.2018473E-1,-6.647778E-1,1.5199777E-1,-5.1178332E-2,4.347579E-1,1.3122945E0,-1.4009464E-2,-2.0278026E-1,1.7538159E-3,1.182399E-1,-1.5881807E-1,1.2609228E-2],"split_indices":[9,0,9,0,3,3,3,9,9,0,0,9,9,0,0,0,0,0,0],"split_type":[0,0,0,0,0,0,0,0,0,0,0,0,0,0,0,0,0,0,0],"sum_hessian":[3.8646454E1,1.057949E0,3.7588505E1,1.5386373E0,3.604987E1,3.2651405E1,3.3984635E0,3.0337715E1,2.3136883E0,1.9438598E0,1.4546038E0,2.7788588E1,2.549129E0,1.1395792E0,1.1741092E0,2.5523174E1,2.2654128E0,1.2208376E0,1.3282914E0],"tree_param":{"num_deleted":"0","num_feature":"10","num_nodes":"19","size_leaf_vector":"0"}},{"base_weights":[-1.5754526E-2,7.8032285E-2,-3.294601E-2,6.2126208E-2,-1.00860514E-1,-8.292597E-2,1.036674E-1,-1.549339E-1,-4.782242E-2,1.14709035E-1,4.3201122E-2,-8.9408666E-2,1.5179066E-1,-9.172523E-2,1.0779503E-1,-2.7379565E-2,-1.2649035E-1,1.1212471E-1,-3.763537E-2,-6.842368E-2,5.708853E-2,-3.0910488E-2,4.5640614E-2],"categories":[0,1],"categories_nodes":[2],"categories_segments":[0],"categories_sizes":[2],"default_left":[1,0,0,1,1,0,0,0,0,0,0,0,0,0,0,0,0,0,0,0,0,0,0],"id":26,"left_children":[1,-1,3,5,7,-1,9,-1,11,-1,13,15,17,-1,19,21,-1,-1,-1,-1,-1,-1,-1],"loss_changes":[1.948374E-1,0E0,2.507197E-1,2.5922292E-1,4.7048134E-1,0E0,2.4181859E-1,0E0,1.8810184E-1,0E0,3.423074E-1,3.5999483E-1,2.9276526E-1,0E0,3.84785E-1,2.3653437E-1,0E0,0E0,0E0,0E0,0E0,0E0,0E0],"parents":[2147483647,0,0,2,2,3,3,4,4,6,6,8,8,10,10,11,11,12,12,14,14,15,15],"right_children":[2,-1,4,6,8,-1,10,-1,12,-1,14,16,18,-1,20,22,-1,-1,-1,-1,-1,-1,-1],"split_conditions":[4E1,7.8032285E-2,NaN,-4.5868316E0,-1.7066765E0,-8.292597E-2,-2.650832E0,-1.549339E-1,7.5E1,1.14709035E-1,9.2E0,8.8865936E-1,8E1,-9.172523E-2,-1.7288505E0,1.4968844E-1,-1.2649035E-1,1.1212471E-1,-3.763537E-2,-6.842368E-2,5.708853E-2,-3.0910488E-2,4.5640614E-2],"split_indices":[3,0,2,9,9,0,9,0,3,0,5,9,3,0,9,9,0,0,0,0,0,0,0],"split_type":[0,0,1,0,0,0,0,0,0,0,0,0,0,0,0,0,0,0,0,0,0,0,0],"sum_hessian":[3.827648E1,1.4165099E0,3.685997E1,1.5394597E1,2.1465374E1,1.0645745E0,1.4330023E1,1.440546E0,2.0024828E1,1.6056796E0,1.2724343E1,1.7029161E1,2.9956672E0,1.4043384E0,1.1320005E1,1.5262035E1,1.7671258E0,1.4703866E0,1.5252807E0,1.8842527E0,9.435752E0,1.1036719E1,4.225316E0],"tree_param":{"num_deleted":"0","num_feature":"10","num_nodes":"23","size_leaf_vector":"0"}},{"base_weights":[-1.5334144E-2,-4.393473E-2,1.7336738E-1,-1.6418504E-2,-1.4098758E-1,1.529181E-1,-4.080644E-2,2.0722976E-2,-2.1301122E-1,-2.4716863E-1,9.0732425E-2,-3.8605213E-2,3.7158704E-1,4.2802975E-2,-1.854457E-1,4.5809504E-2,-1.5139805E-1,1.9437956E-2,-3.001483E-1,1.6464543E-1,-6.547945E-3,-6.1343208E-2,7.717274E-2,-2.422631E-2,5.8942292E-2,-1.9046809E-1,7.076807E-2],"categories":[],"categories_nodes":[],"categories_segments":[],"categories_sizes":[],"default_left":[0,0,0,1,0,0,1,0,0,0,0,0,0,0,0,0,0,0,0,0,0,0,0,0,0,0,0],"id":27,"left_children":[1,3,5,7,-1,-1,9,11,13,15,-1,17,19,21,-1,-1,-1,23,25,-1,-1,-1,-1,-1,-1,-1,-1],"loss_changes":[2.1767396E-1,3.9784265E-1,4.044009E-1,2.4926832E-1,0E0,0E0,3.7078214E-1,6.204344E-1,5.87914E-1,4.0245563E-1,0E0,3.9766514E-1,3.1217027E-1,2.782741E-1,0E0,0E0,0E0,4.0720138E-1,1.0018449E0,0E0,0E0,0E0,0E0,0E0,0E0,0E0,0E0],"parents":[2147483647,0,0,1,1,2,2,3,3,6,6,7,7,8,8,9,9,11,11,12,12,13,13,17,17,18,18],"right_children":[2,4,6,8,-1,-1,10,12,14,16,-1,18,20,22,-1,-1,-1,24,26,-1,-1,-1,-1,-1,-1,-1,-1],"split_conditions":[6.153301E-1,5.1414967E-1,9.2018473E-1,7.6E1,-1.4098758E-1,1.529181E-1,6.8E1,7.3E1,-4.3032697E-1,6.1E1,9.0732425E-2,6.9E1,-1.4942613E-1,-1.4438735E0,-1.854457E-1,4.5809504E-2,-1.5139805E-1,6.4E1,1E0,1.6464543E-1,-6.547945E-3,-6.1343208E-2,7.717274E-2,-2.422631E-2,5.8942292E-2,-1.9046809E-1,7.076807E-2],"split_indices":[9,9,9,3,0,0,3,3,9,3,0,3,9,9,0,0,0,3,6,0,0,0,0,0,0,0,0],"split_type":[0,0,0,0,0,0,0,0,0,0,0,0,0,0,0,0,0,0,0,0,0,0,0,0,0,0,0],"sum_hessian":[3.7921276E1,3.35964E1,4.324872E0,3.2533646E1,1.0627593E0,1.1456546E0,3.1792173E0,2.8116327E1,4.4173164E0,2.1603293E0,1.0188879E0,2.481097E1,3.3053572E0,3.2558548E0,1.1614616E0,1.0056303E0,1.1546992E0,2.1062366E1,3.7486036E0,2.006446E0,1.2989113E0,1.5337137E0,1.7221411E0,1.3797586E1,7.2647805E0,2.194057E0,1.5545466E0],"tree_param":{"num_deleted":"0","num_feature":"10","num_nodes":"27","size_leaf_vector":"0"}},{"base_weights":[-1.4380555E-2,8.817077E-2,-6.0611743E-2,-6.0922123E-2,4.4524992E-1,1.5761743E-1,-1.5737347E-1,2.6115844E-1,-3.064561E-1,1.9179927E-1,3.401933E-2,2.6884675E-1,-7.563862E-2,-3.814066E-1,-8.366805E-2,-2.3983834E-2,1.6566537E-1,-2.0083992E-1,1.5859942E-1,-4.4401474E-2,4.850801E-1,2.0447679E-2,-1.7501749E-1,-2.3635082E-1,6.7377225E-2,6.487752E-2,-7.823491E-2,-6.1870083E-2,1.470846E-1,-1.4510407E-1,8.934261E-2,1.9964127E-1,-9.240064E-3,3.0953472E-2,-4.7457176E-1,-2.223899E-1,3.0252376E-1,9.402358E-2,-1.12874456E-1,-2.0206168E-1,-2.674405E-2,-1.5941851E-1,9.120921E-2,-2.713562E-2,1.9950697E-1],"categories":[0,3,1,0,0],"categories_nodes":[2,8,24,33],"categories_segments":[0,2,3,4],"categories_sizes":[2,1,1,1],"default_left":[1,0,0,0,0,0,0,0,0,0,0,0,0,0,0,0,0,0,0,0,0,0,0,0,0,0,0,0,0,0,0,0,0,0,0,0,0,0,0,0,0,0,0,0,0],"id":28,"left_children":[1,3,5,7,9,11,13,15,17,-1,-1,19,-1,21,23,25,-1,-1,27,29,31,-1,-1,33,35,-1,-1,-1,-1,-1,-1,-1,-1,37,39,41,43,-1,-1,-1,-1,-1,-1,-1,-1],"loss_changes":[1.8726271E-1,6.835676E-1,5.9579706E-1,8.3748454E-1,1.691699E-1,4.6913064E-1,2.8569406E-1,4.0191117E-1,1.1013658E0,0E0,0E0,5.2345014E-1,0E0,4.4661343E-1,3.7924004E-1,2.4549474E-1,0E0,0E0,5.1166236E-1,7.36669E-1,4.3626022E-1,0E0,0E0,5.27694E-1,6.5991E-1,0E0,0E0,0E0,0E0,0E0,0E0,0E0,0E0,6.6254854E-1,2.7132934E-1,8.8910174E-1,8.0446744E-1,0E0,0E0,0E0,0E0,0E0,0E0,0E0,0E0],"parents":[2147483647,0,0,1,1,2,2,3,3,4,4,5,5,6,6,7,7,8,8,11,11,13,13,14,14,15,15,18,18,19,19,20,20,23,23,24,24,33,33,34,34,35,35,36,36],"right_children":[2,4,6,8,10,12,14,16,18,-1,-1,20,-1,22,24,26,-1,-1,28,30,32,-1,-1,34,36,-1,-1,-1,-1,-1,-1,-1,-1,38,40,42,44,-1,-1,-1,-1,-1,-1,-1,-1],"split_conditions":[6E1,2E0,NaN,-1.0322427E0,5.4E1,2E0,6.4E1,-1.7288505E0,NaN,1.9179927E-1,3.401933E-2,-1.0658695E0,-7.563862E-2,-2.338904E0,1E0,-3.042511E0,1.6566537E-1,-2.0083992E-1,5.7E1,6.8E1,7.5E1,2.0447679E-2,-1.7501749E-1,-6.647778E-1,NaN,6.487752E-2,-7.823491E-2,-6.1870083E-2,1.470846E-1,-1.4510407E-1,8.934261E-2,1.9964127E-1,-9.240064E-3,NaN,1E0,7.221982E-1,7E1,9.402358E-2,-1.12874456E-1,-2.0206168E-1,-2.674405E-2,-1.5941851E-1,9.120921E-2,-2.713562E-2,1.9950697E-1],"split_indices":[3,7,0,9,3,7,3,9,4,0,0,9,0,9,6,9,0,0,3,3,3,0,0,9,4,0,0,0,0,0,0,0,0,4,8,9,3,0,0,0,0,0,0,0,0],"split_type":[0,0,1,0,0,0,0,0,1,0,0,0,0,0,0,0,0,0,0,0,0,0,0,0,1,0,0,0,0,0,0,0,0,1,0,0,0,0,0,0,0,0,0,0,0],"sum_hessian":[3.7370777E1,1.1330337E1,2.6040442E1,8.578079E0,2.7522573E0,7.806138E0,1.8234303E1,3.6831076E0,4.894972E0,1.1519789E0,1.6002785E0,6.4099646E0,1.3961732E0,3.4804559E0,1.4753847E1,2.3239758E0,1.3591317E0,2.5022442E0,2.3927279E0,2.9422739E0,3.4676907E0,1.2843608E0,2.196095E0,7.056291E0,7.6975565E0,1.1966602E0,1.1273158E0,1.3195325E0,1.0731953E0,1.1073811E0,1.8348929E0,2.3544316E0,1.1132591E0,3.7351723E0,3.3211188E0,3.4725904E0,4.2249656E0,2.3413823E0,1.3937899E0,1.6973672E0,1.6237516E0,2.1822033E0,1.2903872E0,2.3873649E0,1.837601E0],"tree_param":{"num_deleted":"0","num_feature":"10","num_nodes":"45","size_leaf_vector":"0"}},{"base_weights":[-1.5774911E-2,7.873163E-2,-5.533477E-2,1.8858707E-1,-2.7458993E-1,1.2129065E-1,-1.3072033E-1,4.987763E-2,1.4891782E-1,-1.2658219E-2,-1.1038105E-1,-4.9966715E-2,3.8627514E-1,-3.0821073E-1,-7.348228E-2,3.0651703E-1,-2.3272467E-1,-3.0498952E-1,2.508925E-1,1.5361422E-1,3.1086555E-2,1.6903557E-2,-1.4342198E-1,1.0087939E-1,-1.6751854E-1,-8.487807E-4,1.6849756E-1,-1.6357559E-1,2.8417083E-2,-1.20271266E-1,-2.2621633E-2,1.4138255E-1,-3.354823E-2,1.6130993E-1,-2.6379877E-1,-3.120593E-1,1.609421E-2,-1.5642795E-1,2.4035668E-2,-1.5352674E-1,3.0492553E-2,-1.046688E-1,1.3404979E-1],"categories":[0,2,0,3,0],"categories_nodes":[1,2,24],"categories_segments":[0,2,4],"categories_sizes":[2,2,1],"default_left":[0,0,0,0,0,0,0,0,0,0,0,0,0,0,1,0,0,0,0,0,0,0,0,0,0,0,0,0,0,0,0,0,0,0,0,1,0,0,0,0,0,0,0],"id":29,"left_children":[1,3,5,7,9,11,13,15,-1,-1,-1,17,19,21,23,25,27,29,31,-1,-1,-1,-1,33,35,-1,-1,-1,-1,-1,-1,-1,-1,-1,37,39,41,-1,-1,-1,-1,-1,-1],"loss_changes":[1.4406984E-1,4.9580806E-1,3.7442988E-1,3.731335E-1,5.216755E-2,4.0841538E-1,1.7398992E-1,6.1789453E-1,0E0,0E0,0E0,5.4407364E-1,7.0677996E-2,2.9982427E-1,2.7840176E-1,3.4736702E-1,4.768554E-1,5.2335232E-2,3.2003766E-1,0E0,0E0,0E0,0E0,1.13141E0,2.8997335E-1,0E0,0E0,0E0,0E0,0E0,0E0,0E0,0E0,0E0,4.011878E-1,5.523855E-1,1.0489099E0,0E0,0E0,0E0,0E0,0E0,0E0],"parents":[2147483647,0,0,1,1,2,2,3,3,4,4,5,5,6,6,7,7,11,11,12,12,13,13,14,14,15,15,16,16,17,17,18,18,23,23,24,24,34,34,35,35,36,36],"right_children":[2,4,6,8,10,12,14,16,-1,-1,-1,18,20,22,24,26,28,30,32,-1,-1,-1,-1,34,36,-1,-1,-1,-1,-1,-1,-1,-1,-1,38,40,42,-1,-1,-1,-1,-1,-1],"split_conditions":[6E1,NaN,NaN,5.8E1,-4.8090693E-1,7.3E1,6.4E1,5.5E1,1.4891782E-1,-1.2658219E-2,-1.1038105E-1,-7.455292E-1,-4.1946295E-1,-2.338904E0,6.8E1,5E1,1E0,-1.7528867E0,1E0,1.5361422E-1,3.1086555E-2,1.6903557E-2,-1.4342198E-1,-2.9163897E-1,NaN,-8.487807E-4,1.6849756E-1,-1.6357559E-1,2.8417083E-2,-1.20271266E-1,-2.2621633E-2,1.4138255E-1,-3.354823E-2,1.6130993E-1,1.6779265E-1,7.8E1,-1.5515688E-1,-1.5642795E-1,2.4035668E-2,-1.5352674E-1,3.0492553E-2,-1.046688E-1,1.3404979E-1],"split_indices":[3,2,0,3,9,3,3,3,0,0,0,9,9,9,3,3,6,9,6,0,0,0,0,9,4,0,0,0,0,0,0,0,0,0,9,3,9,0,0,0,0,0,0],"split_type":[0,1,1,0,0,0,0,0,0,0,0,0,0,0,0,0,0,0,0,0,0,0,0,0,1,0,0,0,0,0,0,0,0,0,0,0,0,0,0,0,0,0,0],"sum_hessian":[3.636982E1,1.04397E1,2.5930119E1,8.319294E0,2.1204062E0,7.5744777E0,1.835564E1,6.5359697E0,1.7833247E0,1.023735E0,1.0966712E0,5.0938187E0,2.480659E0,3.406781E0,1.4948859E1,3.3809798E0,3.15499E0,2.74949E0,2.3443289E0,1.1550999E0,1.3255591E0,1.2952428E0,2.1115382E0,5.212006E0,9.736853E0,1.9751364E0,1.4058433E0,1.273943E0,1.8810469E0,1.4129668E0,1.3365232E0,1.2721254E0,1.0722035E0,2.1555665E0,3.0564396E0,5.056669E0,4.6801834E0,1.4523504E0,1.6040893E0,3.2505753E0,1.806094E0,2.6362972E0,2.0438862E0],"tree_param":{"num_deleted":"0","num_feature":"10","num_nodes":"43","size_leaf_vector":"0"}},{"base_weights":[-1.5348163E-2,2.7934017E-2,-9.184651E-2,-2.9404527E-2,2.8245103E-1,-1.9794945E-1,1.2325167E-1,2.9361975E-1,-9.021559E-2,-6.710307E-2,1.6952199E-1,-6.5631784E-2,-1.2792361E-1,1.3092881E-1,-6.61632E-2,1.1982851E-1,5.3883255E-3,-2.3699133E-1,1.0075509E-1,1.7819284E-1,-1.9321662E-1,-8.605458E-2,4.672723E-2,-8.22661E-3,-2.0879455E-1,2.3628539E-1,-2.088502E-1,-8.1382655E-2,4.3242452E-1,-1.22087635E-1,8.712078E-2,2.822364E-2,-2.0545867E-1,-8.85579E-2,6.6704474E-2,1.6293253E-1,3.2502797E-2],"categories":[0,1,3,0,1,0,1,1,0,1],"categories_nodes":[3,4,8,11,17,26],"categories_segments":[0,3,4,5,7,8],"categories_sizes":[3,1,1,2,1,2],"default_left":[0,0,0,0,0,0,0,1,0,0,0,0,0,0,0,0,0,0,1,0,0,0,0,1,0,0,0,0,0,0,0,0,0,0,0,0,0],"id":30,"left_children":[1,3,5,7,9,11,13,15,17,-1,-1,19,-1,-1,21,-1,-1,23,25,27,-1,-1,-1,29,-1,-1,31,33,35,-1,-1,-1,-1,-1,-1,-1,-1],"loss_changes":[1.2352091E-1,3.5997665E-1,3.3098647E-1,4.3060693E-1,7.736535E-1,2.5556087E-1,3.2867086E-1,9.474614E-2,5.3061E-1,0E0,0E0,1.1191555E0,0E0,0E0,2.414352E-1,0E0,0E0,1.0989096E0,1.9844143E0,4.1749194E-1,0E0,0E0,0E0,1.0746855E0,0E0,0E0,1.0290337E0,3.064383E-1,5.182153E-2,0E0,0E0,0E0,0E0,0E0,0E0,0E0,0E0],"parents":[2147483647,0,0,1,1,2,2,3,3,4,4,5,5,6,6,7,7,8,8,11,11,14,14,17,17,18,18,19,19,23,23,26,26,27,27,28,28],"right_children":[2,4,6,8,10,12,14,16,18,-1,-1,20,-1,-1,22,-1,-1,24,26,28,-1,-1,-1,30,-1,-1,32,34,36,-1,-1,-1,-1,-1,-1,-1,-1],"split_conditions":[-1.4942613E-1,-3.838914E-1,6.153301E-1,NaN,NaN,7.3E1,9.2018473E-1,-1.291639E0,NaN,-6.710307E-2,1.6952199E-1,NaN,-1.2792361E-1,1.3092881E-1,1.3122945E0,1.1982851E-1,5.3883255E-3,NaN,1E0,6.3E1,-1.9321662E-1,-8.605458E-2,4.672723E-2,1E0,-2.0879455E-1,2.3628539E-1,NaN,2E0,2.28307E-1,-1.22087635E-1,8.712078E-2,2.822364E-2,-2.0545867E-1,-8.85579E-2,6.6704474E-2,1.6293253E-1,3.2502797E-2],"split_indices":[9,9,9,1,4,3,9,9,4,0,0,0,0,0,9,0,0,2,7,3,0,0,0,7,0,0,0,7,9,0,0,0,0,0,0,0,0],"split_type":[0,0,0,1,1,0,0,0,1,0,0,1,0,0,0,0,0,1,0,0,0,0,0,0,0,0,1,0,0,0,0,0,0,0,0,0,0],"sum_hessian":[3.5531174E1,2.309758E1,1.2433594E1,1.957265E1,3.5249305E0,8.379771E0,4.053822E0,2.494364E0,1.7078285E1,1.3377736E0,2.187157E0,6.121617E0,2.2581549E0,1.0363061E0,3.017516E0,1.4780388E0,1.0163252E0,9.520252E0,7.5580335E0,4.7931004E0,1.3285164E0,1.366274E0,1.651242E0,7.0329127E0,2.4873397E0,1.868594E0,5.6894393E0,2.7080333E0,2.085067E0,2.8563435E0,4.1765695E0,3.9671483E0,1.7222908E0,1.6057683E0,1.1022651E0,1.0504642E0,1.0346029E0],"tree_param":{"num_deleted":"0","num_feature":"10","num_nodes":"37","size_leaf_vector":"0"}},{"base_weights":[-1.6041279E-2,7.664957E-2,-5.5260584E-2,-5.8139216E-2,3.7063944E-1,1.1290972E-1,-1.2559298E-1,-2.2697282E-1,2.4604632E-1,1.7046605E-1,-1.2086236E-3,-4.2938787E-2,3.488327E-1,-6.199977E-3,-2.0679718E-1,8.187876E-2,-4.406002E-1,2.6960464E-2,9.183602E-2,-2.678226E-1,2.2899936E-1,1.476348E-1,1.56099945E-2,-7.790546E-2,1.0632924E-1,-4.4092238E-1,-4.7361907E-2,9.4420165E-2,-4.9892493E-2,-1.65854E-1,-5.6120895E-2,-1.0305522E-1,-1.4248448E-2,8.9422144E-2,1.3277712E-2,1.4221258E-1,-1.0630232E-1,-1.7601083E-1,-3.412867E-2,-1.7084934E-1,9.735973E-2,-1.0679312E-1,2.1259522E-2,1.4046748E-2,-1.996181E-1],"categories":[0,3,0,2,3,3,3],"categories_nodes":[2,8,15,16],"categories_segments":[0,2,5,6],"categories_sizes":[2,3,1,1],"default_left":[0,0,0,0,0,0,0,0,0,0,0,0,0,0,0,0,0,0,0,0,0,0,0,0,1,0,1,0,0,0,0,0,0,0,0,0,0,0,0,0,0,0,0,0,0],"id":31,"left_children":[1,3,5,7,9,11,13,15,17,-1,-1,19,21,23,25,27,29,-1,-1,31,33,-1,-1,-1,35,37,39,-1,-1,-1,-1,-1,-1,-1,-1,-1,41,-1,-1,43,-1,-1,-1,-1,-1],"loss_changes":[1.3342641E-1,4.5684874E-1,3.1641775E-1,4.8705027E-1,2.679583E-1,3.114029E-1,1.7799303E-1,4.266436E-1,5.10861E-3,0E0,0E0,4.1268077E-1,1.1544049E-1,2.7053577E-1,3.8878116E-1,2.4095365E-1,6.1923265E-4,0E0,0E0,4.3818295E-2,2.6871994E-2,0E0,0E0,0E0,5.670161E-1,1.3956076E-1,4.067265E-1,0E0,0E0,0E0,0E0,0E0,0E0,0E0,0E0,0E0,2.4654914E-1,0E0,0E0,7.198342E-1,0E0,0E0,0E0,0E0,0E0],"parents":[2147483647,0,0,1,1,2,2,3,3,4,4,5,5,6,6,7,7,8,8,11,11,12,12,13,13,14,14,15,15,16,16,19,19,20,20,24,24,25,25,26,26,36,36,39,39],"right_children":[2,4,6,8,10,12,14,16,18,-1,-1,20,22,24,26,28,30,-1,-1,32,34,-1,-1,-1,36,38,40,-1,-1,-1,-1,-1,-1,-1,-1,-1,42,-1,-1,44,-1,-1,-1,-1,-1],"split_conditions":[6E1,2E0,NaN,5.7E1,1.4968844E-1,7.3E1,-6.647778E-1,-1.1165115E0,NaN,1.7046605E-1,-1.2086236E-3,-7.455292E-1,7.6E1,6.4E1,1E0,NaN,NaN,2.6960464E-2,9.183602E-2,6.8E1,-1.2701099E-2,1.476348E-1,1.56099945E-2,-7.790546E-2,6.8E1,1E0,7.5E1,9.4420165E-2,-4.9892493E-2,-1.65854E-1,-5.6120895E-2,-1.0305522E-1,-1.4248448E-2,8.9422144E-2,1.3277712E-2,1.4221258E-1,-1.5570841E0,-1.7601083E-1,-3.412867E-2,7.3E1,9.735973E-2,-1.0679312E-1,2.1259522E-2,1.4046748E-2,-1.996181E-1],"split_indices":[3,7,0,3,9,3,9,9,2,0,0,9,3,3,6,2,0,0,0,3,9,0,0,0,3,8,3,0,0,0,0,0,0,0,0,0,9,0,0,3,0,0,0,0,0],"split_type":[0,0,1,0,0,0,0,0,1,0,0,0,0,0,0,1,1,0,0,0,0,0,0,0,0,0,0,0,0,0,0,0,0,0,0,0,0,0,0,0,0,0,0,0,0],"sum_hessian":[3.453813E1,9.985063E0,2.4553066E1,7.3962593E0,2.5888038E0,7.061969E0,1.7491098E1,4.919564E0,2.4766953E0,1.3567358E0,1.2320681E0,4.745279E0,2.3166902E0,7.5163302E0,9.974768E0,2.2636359E0,2.655928E0,1.3813816E0,1.0953138E0,2.6056376E0,2.1396413E0,1.1185979E0,1.1980923E0,1.9088093E0,5.607521E0,3.325646E0,6.6491218E0,1.0295528E0,1.234083E0,1.0225974E0,1.6333303E0,1.5232106E0,1.0824269E0,1.110828E0,1.0288134E0,1.6040921E0,4.003429E0,1.7517556E0,1.5738903E0,5.3974853E0,1.2516366E0,1.242772E0,2.760657E0,4.376505E0,1.0209801E0],"tree_param":{"num_deleted":"0","num_feature":"10","num_nodes":"45","size_leaf_vector":"0"}},{"base_weights":[-1.4058013E-2,1.3906713E-1,-3.8404766E-2,4.752713E-1,-9.047608E-2,9.878118E-2,-1.2254943E-1,1.7165266E-1,3.9878514E-2,1.5006669E-1,-3.203155E-2,-2.3653245E-1,-1.3604585E-2,2.6953247E-1,-1.1915804E-1,-1.716557E-2,-3.146905E-1,9.9728316E-2,-1.1750304E-1,2.1379871E-2,4.6525064E-1,4.849561E-2,-8.8664204E-2,-6.1451674E-2,6.81362E-2,-5.168974E-1,4.5914695E-2,1.9850479E-1,-6.4308144E-2,-5.376495E-2,7.691519E-2,1.4168651E-2,2.0907608E-1,-1.1794496E-2,-2.3764929E-1,9.096682E-2,-5.6613002E-2,-5.4356348E-2,9.285534E-2],"categories":[0,2,3,3,2],"categories_nodes":[1,2,14],"categories_segments":[0,3,4],"categories_sizes":[3,1,1],"default_left":[0,0,0,0,0,0,0,0,0,0,0,0,0,0,0,0,0,0,0,0,0,0,0,0,0,0,0,0,0,0,0,0,0,0,0,0,0,0,0],"id":32,"left_children":[1,3,5,7,-1,9,11,-1,-1,13,-1,15,17,19,21,23,25,27,-1,29,31,-1,-1,-1,-1,33,35,37,-1,-1,-1,-1,-1,-1,-1,-1,-1,-1,-1],"loss_changes":[1.3490207E-1,8.8171244E-1,3.6728224E-1,3.060627E-2,0E0,1.4517368E-1,2.391468E-1,0E0,0E0,3.6084348E-1,0E0,1.5708649E-1,5.1211584E-1,3.4876692E-1,2.3771991E-1,2.0915195E-1,5.290366E-1,3.3080465E-1,0E0,2.4888209E-1,3.622995E-1,0E0,0E0,0E0,0E0,5.632882E-1,2.6297545E-1,3.7589836E-1,0E0,0E0,0E0,0E0,0E0,0E0,0E0,0E0,0E0,0E0,0E0],"parents":[2147483647,0,0,1,1,2,2,3,3,5,5,6,6,9,9,11,11,12,12,13,13,14,14,15,15,16,16,17,17,19,19,20,20,25,25,26,26,27,27],"right_children":[2,4,6,8,-1,10,12,-1,-1,14,-1,16,18,20,22,24,26,28,-1,30,32,-1,-1,-1,-1,34,36,38,-1,-1,-1,-1,-1,-1,-1,-1,-1,-1,-1],"split_conditions":[5.5E1,NaN,NaN,1E0,-9.047608E-2,2E0,1E0,1.7165266E-1,3.9878514E-2,1E0,-3.203155E-2,6.3E1,1E0,6.8E1,NaN,5.9E1,1E0,7.3E1,-1.1750304E-1,1E0,1E0,4.849561E-2,-8.8664204E-2,-6.1451674E-2,6.81362E-2,-1.291639E0,-6.190888E-1,-8.3195823E-1,-6.4308144E-2,-5.376495E-2,7.691519E-2,1.4168651E-2,2.0907608E-1,-1.1794496E-2,-2.3764929E-1,9.096682E-2,-5.6613002E-2,-5.4356348E-2,9.285534E-2],"split_indices":[3,2,0,6,0,7,6,0,0,6,0,3,8,3,2,3,8,3,0,8,7,0,0,0,0,9,9,9,0,0,0,0,0,0,0,0,0,0,0],"split_type":[0,1,1,0,0,0,0,0,0,0,0,0,0,0,1,0,0,0,0,0,0,0,0,0,0,0,0,0,0,0,0,0,0,0,0,0,0,0,0],"sum_hessian":[3.375262E1,3.9839907E0,2.976863E1,2.2152617E0,1.7687289E0,1.1251199E1,1.8517431E1,1.2033012E0,1.0119605E0,9.220596E0,2.030603E0,8.477141E0,1.0040289E1,6.3858128E0,2.8347836E0,2.5472844E0,5.9298573E0,8.291119E0,1.7491703E0,3.3048303E0,3.0809824E0,1.1259044E0,1.7088791E0,1.5318882E0,1.015396E0,3.5216823E0,2.408175E0,6.5874553E0,1.7036637E0,1.9110086E0,1.3938217E0,1.5279075E0,1.5530748E0,1.7054999E0,1.8161824E0,1.0091202E0,1.3990546E0,1.3472811E0,5.2401743E0],"tree_param":{"num_deleted":"0","num_feature":"10","num_nodes":"39","size_leaf_vector":"0"}},{"base_weights":[-1.0488855E-2,-3.2057963E-2,1.4871296E-1,-4.395942E-3,-1.20073795E-1,9.381744E-2,-4.160087E-2,-3.662756E-2,2.0516977E-1,8.9093536E-2,-6.2111583E-2,1.4835599E-1,-2.833507E-2,-2.8873086E-1,7.6735055E-4,-2.5331574E-2,-1.8057244E-1,1.986183E-2,-5.8078784E-2],"categories":[3,2],"categories_nodes":[8,13],"categories_segments":[0,1],"categories_sizes":[1,1],"default_left":[1,1,0,1,0,0,0,0,0,0,0,0,0,0,0,0,0,0,0],"id":33,"left_children":[1,3,5,7,-1,-1,-1,9,11,-1,13,-1,-1,15,17,-1,-1,-1,-1],"loss_changes":[1.22077554E-1,3.1304702E-1,2.4385387E-1,2.0853657E-1,0E0,0E0,0E0,2.4494573E-1,4.037667E-1,0E0,3.6470097E-1,0E0,0E0,3.0479032E-1,2.8016853E-1,0E0,0E0,0E0,0E0],"parents":[2147483647,0,0,1,1,2,2,3,3,7,7,8,8,10,10,13,13,14,14],"right_children":[2,4,6,8,-1,-1,-1,10,12,-1,14,-1,-1,16,18,-1,-1,-1,-1],"split_conditions":[7.7E1,7.6E1,8.1E1,7.3E1,-1.20073795E-1,9.381744E-2,-4.160087E-2,5.29E0,NaN,8.9093536E-2,-1.7288505E0,1.4835599E-1,-2.833507E-2,NaN,6.8E1,-2.5331574E-2,-1.8057244E-1,1.986183E-2,-5.8078784E-2],"split_indices":[3,3,3,3,0,0,0,5,0,0,9,0,0,2,3,0,0,0,0],"split_type":[0,0,0,0,0,0,0,0,1,0,0,0,0,1,0,0,0,0,0],"sum_hessian":[3.316294E1,2.990937E1,3.2535722E0,2.8760527E1,1.1488435E0,2.0152612E0,1.238311E0,2.5641964E1,3.1185627E0,1.0637056E0,2.4578259E1,1.2555538E0,1.8630087E0,4.5582414E0,2.0020018E1,3.5270739E0,1.0311675E0,1.5470677E1,4.5493393E0],"tree_param":{"num_deleted":"0","num_feature":"10","num_nodes":"19","size_leaf_vector":"0"}},{"base_weights":[-1.0687917E-2,7.1894415E-2,-5.3107806E-2,-7.5957336E-2,2.5567785E-1,-6.2326185E-4,-3.6670646E-1,6.1115105E-2,-1.1059916E-1,1.295217E-1,6.945343E-2,3.1306928E-1,-5.3052742E-2,-1.6462307E-1,-1.131112E-2,-4.517818E-2,2.1556742E-1,-3.978167E-2,8.579515E-2,1.1234225E-1,3.0426925E-2,-3.141298E-1,9.754922E-3,9.827499E-2,1.2818949E-2,-1.2134323E-1,-3.11664E-2,1.3577518E-1,-1.1672664E-1,-4.0475093E-2,6.642657E-2,-1.00308694E-1,3.0341395E-3],"categories":[0,3,0,1,2,0],"categories_nodes":[2,4,16],"categories_segments":[0,2,5],"categories_sizes":[2,3,1],"default_left":[0,0,0,0,0,1,1,0,0,0,0,1,0,0,0,0,0,0,0,0,0,0,0,0,0,0,0,0,0,0,0,0,0],"id":34,"left_children":[1,3,5,7,9,11,13,15,-1,-1,17,19,21,-1,-1,-1,23,-1,-1,-1,-1,25,27,-1,-1,-1,-1,29,31,-1,-1,-1,-1],"loss_changes":[1.2196852E-1,3.41967E-1,3.759737E-1,3.1739274E-1,1.5103403E-1,3.5510918E-1,1.7546615E-1,2.2417773E-1,0E0,0E0,2.0745377E-1,2.2066832E-3,3.0624613E-1,0E0,0E0,0E0,5.9595525E-2,0E0,0E0,0E0,0E0,2.6656866E-2,2.6886463E-1,0E0,0E0,0E0,0E0,2.2493525E-1,2.3692311E-1,0E0,0E0,0E0,0E0],"parents":[2147483647,0,0,1,1,2,2,3,3,4,4,5,5,6,6,7,7,10,10,11,11,12,12,16,16,21,21,22,22,27,27,28,28],"right_children":[2,4,6,8,10,12,14,16,-1,-1,18,20,22,-1,-1,-1,24,-1,-1,-1,-1,26,28,-1,-1,-1,-1,30,32,-1,-1,-1,-1],"split_conditions":[-1.1165115E0,-1.7288505E0,NaN,-2.291639E0,NaN,5.1E1,-1.5515688E-1,-3.171794E0,-1.1059916E-1,1.295217E-1,7.3E1,1E0,5.8E1,-1.6462307E-1,-1.131112E-2,-4.517818E-2,NaN,-3.978167E-2,8.579515E-2,1.1234225E-1,3.0426925E-2,1.8003166E-2,-1.0033159E-1,9.827499E-2,1.2818949E-2,-1.2134323E-1,-3.11664E-2,-8.1424195E-1,1.4968844E-1,-4.0475093E-2,6.642657E-2,-1.00308694E-1,3.0341395E-3],"split_indices":[9,9,2,9,2,3,9,9,0,0,3,6,3,0,0,0,4,0,0,0,0,9,9,0,0,0,0,9,9,0,0,0,0],"split_type":[0,0,1,0,1,0,0,0,0,0,0,0,0,0,0,0,1,0,0,0,0,0,0,0,0,0,0,0,0,0,0,0,0],"sum_hessian":[3.2727055E1,1.0870235E1,2.1856821E1,6.3491316E0,4.521104E0,1.958159E1,2.2752297E0,4.86302E0,1.4861118E0,1.6462855E0,2.8748183E0,2.0922337E0,1.7489357E1,1.0347841E0,1.2404456E0,2.0618317E0,2.801188E0,1.6875973E0,1.1872209E0,1.0253954E0,1.0668381E0,2.615571E0,1.4873786E1,1.1564014E0,1.6447867E0,1.183231E0,1.43234E0,7.413674E0,7.460112E0,1.6436222E0,5.7700515E0,2.1444798E0,5.3156323E0],"tree_param":{"num_deleted":"0","num_feature":"10","num_nodes":"33","size_leaf_vector":"0"}},{"base_weights":[-7.212311E-3,8.326333E-2,-4.7621492E-2,3.4586966E-1,-4.5452815E-2,1.9258821E-1,-9.31962E-2,1.6588458E-1,-4.784031E-3,-2.9362965E-1,2.2638033E-1,-9.565595E-3,1.1029469E-1,-1.3768736E-1,-3.2920692E-2,-1.454819E-1,-7.304506E-2,-1.2997349E-1,1.9760837E-1,-1.5585612E-1,8.497754E-2,4.0594533E-2,-6.778782E-2,3.6205396E-2,-9.16366E-2,2.5071137E-2,-3.5090476E-1,1.438825E-1,-4.4253714E-2,3.4510173E-2,-4.5085378E-2,-7.4668233E-3,-1.9880272E-1,1.4757834E-2,-8.7449834E-2],"categories":[2,3,2,0,1,0],"categories_nodes":[0,9,10,20,26],"categories_segments":[0,2,3,4,5],"categories_sizes":[2,1,1,1,1],"default_left":[0,0,0,1,1,0,0,0,0,0,0,0,0,0,0,0,1,1,0,0,0,0,0,0,0,0,0,0,0,0,0,0,0,0,0],"id":35,"left_children":[1,3,5,7,9,11,13,-1,-1,15,17,-1,-1,-1,19,-1,21,23,-1,25,27,-1,-1,-1,-1,29,31,-1,33,-1,-1,-1,-1,-1,-1],"loss_changes":[1.259642E-1,3.762553E-1,2.7743617E-1,2.803844E-1,6.089826E-1,1.7307685E-1,4.389792E-1,0E0,0E0,1.6034666E-1,7.6385814E-1,0E0,0E0,0E0,2.851509E-1,0E0,1.3673803E-1,1.7975202E-1,0E0,3.4534454E-1,5.4260385E-1,0E0,0E0,0E0,0E0,1.1005984E-1,4.5674652E-1,0E0,2.1342707E-1,0E0,0E0,0E0,0E0,0E0,0E0],"parents":[2147483647,0,0,1,1,2,2,3,3,4,4,5,5,6,6,9,9,10,10,14,14,16,16,17,17,19,19,20,20,25,25,26,26,28,28],"right_children":[2,4,6,8,10,12,14,-1,-1,16,18,-1,-1,-1,20,-1,22,24,-1,26,28,-1,-1,-1,-1,30,32,-1,34,-1,-1,-1,-1,-1,-1],"split_conditions":[NaN,1E0,5.5E1,6.7E1,6.8E1,5E1,5.7E1,1.6588458E-1,-4.784031E-3,NaN,NaN,-9.565595E-3,1.1029469E-1,-1.3768736E-1,1E0,-1.454819E-1,-1.4942613E-1,1E0,1.9760837E-1,6.8E1,NaN,4.0594533E-2,-6.778782E-2,3.6205396E-2,-9.16366E-2,-2.9163897E-1,NaN,1.438825E-1,1E0,3.4510173E-2,-4.5085378E-2,-7.4668233E-3,-1.9880272E-1,1.4757834E-2,-8.7449834E-2],"split_indices":[0,7,3,3,3,3,3,0,0,2,4,0,0,0,6,0,9,6,0,3,2,0,0,0,0,9,4,0,8,0,0,0,0,0,0],"split_type":[1,0,0,0,0,0,0,0,0,1,1,0,0,0,0,0,0,0,0,0,1,0,0,0,0,0,1,0,0,0,0,0,0,0,0],"sum_hessian":[3.236912E1,9.666175E0,2.2702948E1,2.6245341E0,7.0416403E0,3.1060712E0,1.9596876E1,1.3332285E0,1.2913058E0,3.639074E0,3.4025664E0,1.7193183E0,1.386753E0,1.8367633E0,1.7760113E1,1.3070543E0,2.3320198E0,2.248498E0,1.1540685E0,8.536714E0,9.223399E0,1.0357732E0,1.2962466E0,1.0545073E0,1.1939906E0,4.88077E0,3.6559436E0,1.606481E0,7.6169186E0,3.4531813E0,1.4275892E0,2.3150034E0,1.3409402E0,6.109043E0,1.5078753E0],"tree_param":{"num_deleted":"0","num_feature":"10","num_nodes":"35","size_leaf_vector":"0"}},{"base_weights":[-1.1277419E-2,-2.9645212E-2,5.3377416E-2,-4.873033E-2,6.596631E-2,-9.98104E-2,-1.914754E-2,1.6210043E-1,-8.127376E-2,3.326298E-3,1.0273939E-1,-2.2952685E-1,-2.7680954E-2,7.2048515E-2,-1.0817039E-1,3.3766336E-3,-1.0268304E-1,1.819121E-2,-6.597102E-2],"categories":[],"categories_nodes":[],"categories_segments":[],"categories_sizes":[],"default_left":[0,1,0,0,0,0,0,0,0,0,0,0,0,0,0,0,0,0,0],"id":36,"left_children":[1,3,-1,5,-1,-1,7,9,11,13,-1,15,17,-1,-1,-1,-1,-1,-1],"loss_changes":[1.18731044E-1,1.5651716E-1,0E0,2.3942295E-1,0E0,0E0,3.2350057E-1,2.0988962E-1,1.6201034E-1,5.113818E-1,0E0,1.5287405E-1,2.9686645E-1,0E0,0E0,0E0,0E0,0E0,0E0],"parents":[2147483647,0,0,1,1,3,3,6,6,7,7,8,8,9,9,11,11,12,12],"right_children":[2,4,-1,6,-1,-1,8,10,12,14,-1,16,18,-1,-1,-1,-1,-1,-1],"split_conditions":[1.228307E0,4.39E0,5.3377416E-2,-3.171794E0,6.596631E-2,-9.98104E-2,-1.291639E0,-1.7288505E0,-7.066765E-1,-2.291639E0,1.0273939E-1,-1.1165115E0,2.28307E-1,7.2048515E-2,-1.0817039E-1,3.3766336E-3,-1.0268304E-1,1.819121E-2,-6.597102E-2],"split_indices":[9,5,0,9,0,0,9,9,9,9,0,9,9,0,0,0,0,0,0],"split_type":[0,0,0,0,0,0,0,0,0,0,0,0,0,0,0,0,0,0,0],"sum_hessian":[3.1647217E1,2.9615456E1,2.0317616E0,2.8258837E1,1.3566173E0,1.6994108E0,2.6559427E1,6.36905E0,2.0190376E1,3.9288955E0,2.4401546E0,4.489191E0,1.5701185E1,2.5859137E0,1.3429819E0,1.718798E0,2.7703931E0,1.1227264E1,4.4739213E0],"tree_param":{"num_deleted":"0","num_feature":"10","num_nodes":"19","size_leaf_vector":"0"}},{"base_weights":[-1.0272086E-2,-3.2215327E-2,1.2543672E-1,-7.5140096E-2,-1.3109492E-2,9.370323E-2,-3.38176E-2,8.6069606E-2,-3.6428876E-2,-6.7746036E-2,4.2373355E-2,-2.0037054E-1,7.275889E-3,-3.6790267E-1,8.146079E-2,2.4748684E-1,-4.4061814E-2,-1.1512693E-2,-1.7130718E-1,1.20291695E-1,-2.0961266E-2,1.1839686E-2,-8.587395E-2],"categories":[1,2],"categories_nodes":[1],"categories_segments":[0],"categories_sizes":[2],"default_left":[0,0,0,0,0,0,0,0,1,0,0,1,0,0,0,0,0,0,0,0,0,0,0],"id":37,"left_children":[1,3,5,-1,7,-1,9,-1,11,-1,-1,13,15,17,-1,19,21,-1,-1,-1,-1,-1,-1],"loss_changes":[1.0020515E-1,1.1594841E-1,1.5043509E-1,0E0,2.0177276E-1,0E0,1.4750719E-1,0E0,1.8962732E-1,0E0,0E0,5.396771E-1,2.7850118E-1,2.812885E-1,0E0,2.2149774E-1,3.9013556E-1,0E0,0E0,0E0,0E0,0E0,0E0],"parents":[2147483647,0,0,1,1,2,2,4,4,6,6,8,8,11,11,12,12,13,13,15,15,16,16],"right_children":[2,4,6,-1,8,-1,10,-1,12,-1,-1,14,16,18,-1,20,22,-1,-1,-1,-1,-1,-1],"split_conditions":[6.153301E-1,NaN,1.0302892E0,-7.5140096E-2,5.29E0,9.370323E-2,1.3808751E0,8.6069606E-2,5.7E1,-6.7746036E-2,4.2373355E-2,2E0,6E1,-1.1165115E0,8.146079E-2,-2.9163897E-1,2E0,-1.1512693E-2,-1.7130718E-1,1.20291695E-1,-2.0961266E-2,1.1839686E-2,-8.587395E-2],"split_indices":[9,1,9,0,5,0,9,0,3,0,0,7,3,9,0,9,7,0,0,0,0,0,0],"split_type":[0,1,0,0,0,0,0,0,0,0,0,0,0,0,0,0,0,0,0,0,0,0,0],"sum_hessian":[3.1292704E1,2.7593609E1,3.6990948E0,1.246381E0,2.6347229E1,1.2595475E0,2.4395473E0,1.0850353E0,2.5262194E1,1.0251992E0,1.4143482E0,4.5626235E0,2.069957E1,3.5298703E0,1.032753E0,2.9721255E0,1.7727444E1,1.7994771E0,1.7303932E0,1.8256873E0,1.1464382E0,1.3803706E1,3.9237375E0],"tree_param":{"num_deleted":"0","num_feature":"10","num_nodes":"23","size_leaf_vector":"0"}},{"base_weights":[-7.085264E-3,1.591843E-1,-3.3632103E-2,1.13909595E-1,-5.4351408E-2,9.484361E-2,-1.0967545E-1,-3.9697807E-2,1.5958913E-1,-2.1590374E-1,-9.090023E-3,1.4351522E-2,3.9920288E-1,-8.10497E-2,-3.390261E-1,-1.3939986E-1,2.2922705E-1,1.5473479E-1,-1.0973748E-1,1.4742841E-1,3.8217872E-2,1.03973895E-1,-9.377144E-2,-1.3848473E-1,-1.8970923E-2,6.776997E-2,-3.760521E-1,-6.956546E-2,1.5919147E-1,-4.1214496E-2,8.517446E-2,-6.967678E-2,1.1178651E-1,-1.1345426E-1,8.661456E-2,7.36554E-3,-2.0447142E-1],"categories":[0,2,3,3,0,0],"categories_nodes":[1,2,9,16],"categories_segments":[0,3,4,5],"categories_sizes":[3,1,1,1],"default_left":[0,0,0,0,0,0,0,0,0,0,0,0,1,0,0,0,0,0,0,0,0,0,0,0,0,0,0,0,0,0,0,0,0,0,0,0,0],"id":38,"left_children":[1,3,5,-1,-1,7,9,-1,11,13,15,17,19,21,23,25,27,29,-1,-1,-1,31,-1,-1,-1,33,35,-1,-1,-1,-1,-1,-1,-1,-1,-1,-1],"loss_changes":[1.4595792E-1,4.1104499E-1,2.8683138E-1,0E0,0E0,1.837405E-1,1.929097E-1,0E0,3.0948326E-1,1.19068086E-1,3.552905E-1,4.1290605E-1,2.2147477E-2,2.6924136E-1,1.1617437E-1,3.859823E-1,6.8714327E-1,2.49522E-1,0E0,0E0,0E0,4.3178764E-1,0E0,0E0,0E0,5.78984E-1,4.5550674E-1,0E0,0E0,0E0,0E0,0E0,0E0,0E0,0E0,0E0,0E0],"parents":[2147483647,0,0,1,1,2,2,5,5,6,6,8,8,9,9,10,10,11,11,12,12,13,13,14,14,15,15,16,16,17,17,21,21,25,25,26,26],"right_children":[2,4,6,-1,-1,8,10,-1,12,14,16,18,20,22,24,26,28,30,-1,-1,-1,32,-1,-1,-1,34,36,-1,-1,-1,-1,-1,-1,-1,-1,-1,-1],"split_conditions":[5.5E1,NaN,NaN,1.13909595E-1,-5.4351408E-2,1.193E1,1E0,-3.9697807E-2,7.3E1,NaN,7.1E1,6.9E1,7.6E1,-8.3195823E-1,-4.721327E-1,1.6804175E-1,NaN,-1.7288505E0,-1.0973748E-1,1.4742841E-1,3.8217872E-2,6.7E1,-9.377144E-2,-1.3848473E-1,-1.8970923E-2,-8.3195823E-1,2E0,-6.956546E-2,1.5919147E-1,-4.1214496E-2,8.517446E-2,-6.967678E-2,1.1178651E-1,-1.1345426E-1,8.661456E-2,7.36554E-3,-2.0447142E-1],"split_indices":[3,2,0,0,0,5,6,0,3,4,3,3,3,9,9,9,4,9,0,0,0,3,0,0,0,9,7,0,0,0,0,0,0,0,0,0,0],"split_type":[0,1,1,0,0,0,0,0,0,1,0,0,0,0,0,0,1,0,0,0,0,0,0,0,0,0,0,0,0,0,0,0,0,0,0,0,0],"sum_hessian":[3.0854641E1,3.560152E0,2.7294489E1,2.0902793E0,1.4698727E0,1.0056589E1,1.72379E1,1.9990003E0,8.057589E0,7.8261895E0,9.411711E0,5.67667E0,2.380918E0,4.526581E0,3.2996087E0,6.353005E0,3.0587058E0,4.578741E0,1.0979294E0,1.174445E0,1.2064731E0,2.8221412E0,1.7044395E0,1.8177953E0,1.4818134E0,3.7680306E0,2.5849743E0,1.3002288E0,1.7584771E0,1.3844895E0,3.1942515E0,1.3135779E0,1.5085633E0,1.0125906E0,2.75544E0,1.5163457E0,1.0686285E0],"tree_param":{"num_deleted":"0","num_feature":"10","num_nodes":"37","size_leaf_vector":"0"}},{"base_weights":[-1.22290645E-2,2.0665715E-2,-1.1283726E-1,-1.6096114E-1,4.9873136E-2,-2.0483512E-1,7.5405784E-2,-1.2289366E-1,3.6546618E-2,8.507729E-2,1.1841789E-2,-6.1306182E-2,-1.4480053E-1,1.4061537E-1,-6.235438E-2,4.7480255E-2,-1.7742364E-1,3.2363895E-1,-8.592366E-3,-9.83302E-2,-1.8705432E-4,-9.188567E-2,2.413995E-2,2.2627208E-2,1.3335732E-1,-6.664861E-2,1.0797412E-1,-3.6469314E-2,2.8269997E-2],"categories":[0,3],"categories_nodes":[11],"categories_segments":[0],"categories_sizes":[2],"default_left":[0,0,0,0,0,0,0,0,0,0,0,0,0,0,1,0,0,0,0,0,0,0,0,0,0,0,0,0,0],"id":39,"left_children":[1,3,5,7,9,11,-1,-1,-1,-1,13,15,-1,17,19,-1,21,23,25,-1,27,-1,-1,-1,-1,-1,-1,-1,-1],"loss_changes":[1.05657205E-1,1.3732502E-1,3.1441596E-1,3.0398816E-1,1.9006094E-1,2.4221006E-1,0E0,0E0,0E0,0E0,1.9755132E-1,1.718728E-1,0E0,2.0841432E-1,2.1821001E-1,0E0,1.6290441E-1,6.87207E-2,4.8309755E-1,0E0,1.4575686E-1,0E0,0E0,0E0,0E0,0E0,0E0,0E0,0E0],"parents":[2147483647,0,0,1,1,2,2,3,3,4,4,5,5,10,10,11,11,13,13,14,14,16,16,17,17,18,18,20,20],"right_children":[2,4,6,8,10,12,-1,-1,-1,-1,14,16,-1,18,20,-1,22,24,26,-1,28,-1,-1,-1,-1,-1,-1,-1,-1],"split_conditions":[1E0,-2.4721327E0,7.5E1,6.8E1,-1.913685E0,6.8E1,7.5405784E-2,-1.2289366E-1,3.6546618E-2,8.507729E-2,6.1E1,NaN,-1.4480053E-1,-4.3032697E-1,6.4E1,4.7480255E-2,6.5E1,-7.066765E-1,4.347579E-1,-9.83302E-2,1E0,-9.188567E-2,2.413995E-2,2.2627208E-2,1.3335732E-1,-6.664861E-2,1.0797412E-1,-3.6469314E-2,2.8269997E-2],"split_indices":[8,9,3,3,9,3,0,0,0,0,3,0,0,9,3,0,3,9,9,0,6,0,0,0,0,0,0,0,0],"split_type":[0,0,0,0,0,0,0,0,0,0,0,1,0,0,0,0,0,0,0,0,0,0,0,0,0,0,0,0,0],"sum_hessian":[3.022098E1,2.3373417E1,6.8475623E0,2.6130645E0,2.0760353E1,5.8159556E0,1.0316067E0,1.151657E0,1.4614075E0,2.001789E0,1.8758564E1,4.6397266E0,1.1762291E0,6.530009E0,1.2228555E1,1.4793456E0,3.160381E0,2.40765E0,4.122359E0,1.5099094E0,1.0718645E1,1.9822408E0,1.1781404E0,1.3203977E0,1.0872521E0,2.86124E0,1.2611189E0,4.564064E0,6.1545815E0],"tree_param":{"num_deleted":"0","num_feature":"10","num_nodes":"29","size_leaf_vector":"0"}},{"base_weights":[-9.135273E-3,7.009793E-2,-4.2570174E-2,-4.816909E-2,3.185859E-1,9.916566E-2,-1.00127555E-1,1.4990698E-1,-2.4180427E-1,1.3799396E-1,7.81283E-3,1.8376143E-1,-5.6339808E-2,-2.8321853E-2,-2.1780375E-1,-3.1641543E-2,1.0127683E-1,6.626086E-2,-1.4959086E-1,-7.567932E-3,2.9654005E-1,-1.0758271E-1,7.3282585E-2,-3.7088808E-1,-2.2679977E-2,3.41662E-3,1.22793525E-1,-1.3695587E-2,-9.519238E-2,-1.4522368E-1,-3.0629372E-2,-5.5582915E-2,4.2329125E-2,2.5514578E-2,-6.8778716E-2],"categories":[0,3,0,0,1,2,1],"categories_nodes":[2,3,8,24],"categories_segments":[0,2,3,6],"categories_sizes":[2,1,3,1],"default_left":[0,0,0,0,0,0,0,0,0,0,0,0,0,0,0,0,0,0,0,0,0,0,0,1,0,0,0,1,0,0,0,0,0,0,0],"id":40,"left_children":[1,3,5,7,9,11,13,15,17,-1,-1,19,-1,21,23,-1,-1,-1,-1,-1,25,27,-1,29,31,-1,-1,33,-1,-1,-1,-1,-1,-1,-1],"loss_changes":[8.466263E-2,2.9533625E-1,1.9188842E-1,3.1714746E-1,1.2053496E-1,2.0308627E-1,1.3207395E-1,2.3871815E-1,5.9568185E-1,0E0,0E0,1.4579861E-1,0E0,2.7064618E-1,1.723173E-1,0E0,0E0,0E0,0E0,0E0,1.2043026E-1,1.8185723E-1,0E0,5.1748157E-2,1.2534018E-1,0E0,0E0,1.8078929E-1,0E0,0E0,0E0,0E0,0E0,0E0,0E0],"parents":[2147483647,0,0,1,1,2,2,3,3,4,4,5,5,6,6,7,7,8,8,11,11,13,13,14,14,20,20,21,21,23,23,24,24,27,27],"right_children":[2,4,6,8,10,12,14,16,18,-1,-1,20,-1,22,24,-1,-1,-1,-1,-1,26,28,-1,30,32,-1,-1,34,-1,-1,-1,-1,-1,-1,-1],"split_conditions":[6E1,2E0,NaN,NaN,1.4968844E-1,2E0,-1.0033159E-1,-4.8185948E-1,NaN,1.3799396E-1,7.81283E-3,6.8E1,-5.6339808E-2,-1.5515688E-1,3.8091114E-1,-3.1641543E-2,1.0127683E-1,6.626086E-2,-1.4959086E-1,-7.567932E-3,1E0,-6.647778E-1,7.3282585E-2,6.7E1,NaN,3.41662E-3,1.22793525E-1,7.4E1,-9.519238E-2,-1.4522368E-1,-3.0629372E-2,-5.5582915E-2,4.2329125E-2,2.5514578E-2,-6.8778716E-2],"split_indices":[3,7,0,4,9,7,9,9,2,0,0,3,0,9,9,0,0,0,0,0,7,9,0,3,4,0,0,3,0,0,0,0,0,0,0],"split_type":[0,0,1,1,0,0,0,0,1,0,0,0,0,0,0,0,0,0,0,0,0,0,0,0,1,0,0,0,0,0,0,0,0,0,0],"sum_hessian":[2.9831932E1,8.527389E0,2.1304544E1,6.323765E0,2.2036235E0,5.9441338E0,1.5360411E1,3.2376695E0,3.0860956E0,1.0997407E0,1.1038827E0,4.8685493E0,1.0755845E0,1.030997E1,5.050441E0,1.5570407E0,1.6806289E0,1.1515826E0,1.9345129E0,1.9785168E0,2.8900323E0,8.456488E0,1.8534826E0,2.325324E0,2.7251165E0,1.1310588E0,1.7589736E0,6.577333E0,1.8791543E0,1.0726595E0,1.2526647E0,1.3016139E0,1.4235026E0,4.9262447E0,1.6510882E0],"tree_param":{"num_deleted":"0","num_feature":"10","num_nodes":"35","size_leaf_vector":"0"}},{"base_weights":[-9.908918E-3,1.2907659E-1,-3.2164816E-2,9.686222E-2,-5.0233345E-2,7.386871E-2,-9.404074E-2,-2.7219055E-2,1.21502556E-1,-1.2825711E-1,3.690705E-2,3.2264874E-3,3.173612E-1,-7.568647E-2,-1.2606753E-1,5.812214E-2,-1.2077441E-1,1.2941207E-1,1.9120548E-2,-2.0805876E-1,6.23021E-2,-1.1682135E-1,2.8280122E-2,-9.113586E-2,5.5468645E-2,5.3522732E-2,-1.0056252E-1],"categories":[0,2,3,3,2],"categories_nodes":[1,2,11],"categories_segments":[0,3,4],"categories_sizes":[3,1,1],"default_left":[0,0,0,0,0,0,0,0,0,0,0,0,1,0,0,0,1,0,0,0,0,0,0,0,0,0,0],"id":41,"left_children":[1,3,5,-1,-1,7,9,-1,11,13,-1,15,17,19,-1,-1,21,-1,-1,23,25,-1,-1,-1,-1,-1,-1],"loss_changes":[9.8276705E-2,3.068852E-1,1.8428583E-1,0E0,0E0,9.3511164E-2,1.4582008E-1,0E0,1.9789517E-1,2.078585E-1,0E0,1.7374356E-1,6.569904E-2,2.7693248E-1,0E0,0E0,2.9498118E-1,0E0,0E0,3.4229174E-1,4.2189106E-1,0E0,0E0,0E0,0E0,0E0,0E0],"parents":[2147483647,0,0,1,1,2,2,5,5,6,6,8,8,9,9,11,11,12,12,13,13,16,16,19,19,20,20],"right_children":[2,4,6,-1,-1,8,10,-1,12,14,-1,16,18,20,-1,-1,22,-1,-1,24,26,-1,-1,-1,-1,-1,-1],"split_conditions":[5.5E1,NaN,NaN,9.686222E-2,-5.0233345E-2,1.193E1,7.8E1,-2.7219055E-2,7.3E1,8.8865936E-1,3.690705E-2,NaN,7.6E1,-4.3032697E-1,-1.2606753E-1,5.812214E-2,-1.0322427E0,1.2941207E-1,1.9120548E-2,2E0,7.3E1,-1.1682135E-1,2.8280122E-2,-9.113586E-2,5.5468645E-2,5.3522732E-2,-1.0056252E-1],"split_indices":[3,2,0,0,0,5,3,0,3,9,0,2,3,9,0,0,9,0,0,7,3,0,0,0,0,0,0],"split_type":[0,1,1,0,0,0,0,0,0,0,0,1,0,0,0,0,0,0,0,0,0,0,0,0,0,0,0],"sum_hessian":[2.9429186E1,3.3995752E0,2.602961E1,2.002153E0,1.3974223E0,9.520687E0,1.6508923E1,1.9337763E0,7.586911E0,1.4614354E1,1.8945689E0,5.364091E0,2.22282E0,1.3451549E1,1.1628058E0,1.8931142E0,3.4709768E0,1.0499922E0,1.1728277E0,6.606318E0,6.84523E0,1.1827055E0,2.2882712E0,5.4946785E0,1.1116395E0,5.7244005E0,1.1208298E0],"tree_param":{"num_deleted":"0","num_feature":"10","num_nodes":"27","size_leaf_vector":"0"}},{"base_weights":[-8.290001E-3,5.3830002E-3,-5.748536E-2,-2.3192773E-2,2.4952848E-1,1.7576244E-2,-1.3010418E-1,1.0040714E-1,1.4057147E-2,-2.5349462E-2,1.9696341E-1,-2.9089892E-1,6.1367568E-2,-7.6518156E-2,1.9654469E-1,9.498023E-2,-2.2805196E-3,2.277268E-2,-1.4125147E-1,8.274775E-2,-6.2492203E-2,5.0813286E-3,-7.0056945E-2,1.23603955E-1,-1.6650334E-2],"categories":[],"categories_nodes":[],"categories_segments":[],"categories_sizes":[],"default_left":[0,0,0,0,0,0,0,0,0,0,0,0,0,0,0,0,0,0,0,0,0,0,0,0,0],"id":42,"left_children":[1,3,-1,5,7,9,11,-1,-1,13,15,17,19,21,23,-1,-1,-1,-1,-1,-1,-1,-1,-1,-1],"loss_changes":[7.614857E-2,2.0713319E-1,0E0,1.1888559E-1,3.7978306E-2,1.609016E-1,2.4888107E-1,0E0,0E0,2.1059625E-1,1.0087547E-1,3.1644747E-1,3.033108E-1,2.1988183E-1,2.1336375E-1,0E0,0E0,0E0,0E0,0E0,0E0,0E0,0E0,0E0,0E0],"parents":[2147483647,0,0,1,1,3,3,4,4,5,5,6,6,9,9,10,10,11,11,12,12,13,13,14,14],"right_children":[2,4,-1,6,8,10,12,-1,-1,14,16,18,20,22,24,-1,-1,-1,-1,-1,-1,-1,-1,-1,-1],"split_conditions":[8.2E1,7.7E1,-5.748536E-2,6.9E1,8E1,6.7E1,-3.838914E-1,1.0040714E-1,1.4057147E-2,4.347579E-1,-8.3195823E-1,1E0,2E0,-2.9163897E-1,9.2018473E-1,9.498023E-2,-2.2805196E-3,2.277268E-2,-1.4125147E-1,8.274775E-2,-6.2492203E-2,5.0813286E-3,-7.0056945E-2,1.23603955E-1,-1.6650334E-2],"split_indices":[3,3,0,3,3,3,9,0,0,9,9,7,7,9,9,0,0,0,0,0,0,0,0,0,0],"split_type":[0,0,0,0,0,0,0,0,0,0,0,0,0,0,0,0,0,0,0,0,0,0,0,0,0],"sum_hessian":[2.8967215E1,2.7859993E1,1.1072233E0,2.5750996E1,2.1089962E0,1.9247036E1,6.5039606E0,1.0263369E0,1.0826594E0,1.6223572E1,3.0234637E0,3.2529278E0,3.2510326E0,1.371586E1,2.507712E0,1.5621707E0,1.461293E0,1.2608387E0,1.992089E0,1.7982057E0,1.452827E0,9.157221E0,4.5586395E0,1.0097892E0,1.4979227E0],"tree_param":{"num_deleted":"0","num_feature":"10","num_nodes":"25","size_leaf_vector":"0"}},{"base_weights":[-2.9856467E-3,-1.8960284E-2,4.5694858E-2,-3.894391E-2,6.904252E-2,-9.198874E-2,-1.0754463E-2,1.4435567E-1,-8.396722E-2,2.7565917E-1,-4.0233947E-2,1.1821096E-2,-2.3310117E-1,2.1910379E-2,1.231574E-1,-5.667433E-2,6.83415E-2,-6.289936E-2,4.3041017E-2,-1.19778626E-1,5.626554E-5],"categories":[1,0],"categories_nodes":[7,12],"categories_segments":[0,1],"categories_sizes":[1,1],"default_left":[0,1,0,0,0,0,0,0,0,0,0,0,0,0,0,0,0,0,0,0,0],"id":43,"left_children":[1,3,-1,5,-1,-1,7,9,11,13,15,17,19,-1,-1,-1,-1,-1,-1,-1,-1],"loss_changes":[7.647044E-2,1.4726382E-1,0E0,1.9723229E-1,0E0,0E0,2.9692084E-1,2.1491395E-1,2.5517154E-1,1.07783794E-1,2.1711421E-1,3.7154934E-1,2.6982227E-1,0E0,0E0,0E0,0E0,0E0,0E0,0E0,0E0],"parents":[2147483647,0,0,1,1,3,3,6,6,7,7,8,8,9,9,10,10,11,11,12,12],"right_children":[2,4,-1,6,-1,-1,8,10,12,14,16,18,20,-1,-1,-1,-1,-1,-1,-1,-1],"split_conditions":[1.228307E0,4.39E0,4.5694858E-2,-3.171794E0,6.904252E-2,-9.198874E-2,-1.1165115E0,NaN,6.8E1,-1.7288505E0,7.3E1,5.8E1,NaN,2.1910379E-2,1.231574E-1,-5.667433E-2,6.83415E-2,-6.289936E-2,4.3041017E-2,-1.19778626E-1,5.626554E-5],"split_indices":[9,5,0,9,0,0,9,2,3,9,3,3,4,0,0,0,0,0,0,0,0],"split_type":[0,0,0,0,0,0,0,1,0,0,0,0,1,0,0,0,0,0,0,0,0],"sum_hessian":[2.8659708E1,2.6782701E1,1.8770057E0,2.5574696E1,1.2080072E0,1.4955549E0,2.407914E1,7.4094944E0,1.6669645E1,4.0413866E0,3.3681078E0,1.0710839E1,5.958806E0,2.23101E0,1.8103769E0,2.3562822E0,1.0118256E0,3.7720897E0,6.93875E0,3.064589E0,2.894217E0],"tree_param":{"num_deleted":"0","num_feature":"10","num_nodes":"21","size_leaf_vector":"0"}},{"base_weights":[-1.0205872E-3,1.3265479E-1,-2.3000747E-2,9.050234E-2,-4.2183444E-2,6.5305375E-2,-7.461646E-2,-2.9090093E-2,1.1386186E-1,-7.810791E-2,-4.1300695E-2,-2.8740235E-3,9.2612356E-2,4.7159124E-2,-8.1177995E-2,-6.1697137E-2,1.0436824E-1,1.0367371E-2,-2.3076351E-1,7.6217875E-2,-4.7674756E-2,-2.3783362E-2,7.934064E-2,-1.0324027E-1,1.641419E-2],"categories":[0,2,3,3],"categories_nodes":[1,2],"categories_segments":[0,3],"categories_sizes":[3,1],"default_left":[0,0,0,0,0,0,0,0,0,0,0,0,0,0,0,0,0,0,0,0,0,0,0,0,0],"id":44,"left_children":[1,3,5,-1,-1,7,9,-1,11,-1,13,15,-1,-1,17,-1,19,21,23,-1,-1,-1,-1,-1,-1],"loss_changes":[8.929058E-2,2.4067523E-1,1.2364757E-1,0E0,0E0,9.098515E-2,9.390506E-2,0E0,1.8897448E-1,0E0,1.3568127E-1,1.5546584E-1,0E0,0E0,1.8850023E-1,0E0,2.2536111E-1,2.348141E-1,1.8721214E-1,0E0,0E0,0E0,0E0,0E0,0E0],"parents":[2147483647,0,0,1,1,2,2,5,5,6,6,8,8,10,10,11,11,14,14,16,16,17,17,18,18],"right_children":[2,4,6,-1,-1,8,10,-1,12,-1,14,16,-1,-1,18,-1,20,22,24,-1,-1,-1,-1,-1,-1],"split_conditions":[5.5E1,NaN,NaN,9.050234E-2,-4.2183444E-2,1.193E1,5.7E1,-2.9090093E-2,7.3E1,-7.810791E-2,6E1,-1.7288505E0,9.2612356E-2,4.7159124E-2,-1.0033159E-1,-6.1697137E-2,-1.5020463E-1,-1.6439515E-1,7.221982E-1,7.6217875E-2,-4.7674756E-2,-2.3783362E-2,7.934064E-2,-1.0324027E-1,1.641419E-2],"split_indices":[3,2,0,0,0,5,3,0,3,0,3,9,0,0,9,0,9,9,9,0,0,0,0,0,0],"split_type":[0,1,1,0,0,0,0,0,0,0,0,0,0,0,0,0,0,0,0,0,0,0,0,0,0],"sum_hessian":[2.8351046E1,3.2924361E0,2.5058609E1,1.9700004E0,1.3224356E0,9.146023E0,1.5912586E1,1.8768221E0,7.2692013E0,1.3836278E0,1.4528958E1,5.161875E0,2.1073263E0,1.9383565E0,1.2590602E1,1.4681259E0,3.693749E0,8.387933E0,4.2026687E0,2.377211E0,1.3165379E0,6.709038E0,1.6788955E0,2.8610146E0,1.341654E0],"tree_param":{"num_deleted":"0","num_feature":"10","num_nodes":"25","size_leaf_vector":"0"}},{"base_weights":[-2.85816E-4,2.31361E-2,-1.06534585E-1,-5.67139E-3,8.288274E-2,4.6363134E-2,-2.868191E-1,4.5622583E-2,-2.334088E-1,-1.1321122E-1,-1.511589E-2,-3.978033E-3,1.16670884E-1,-3.5009715E-1,1.6197212E-2,1.5878618E-1,-1.2731561E-1,-2.145414E-2,-1.4348552E-1,1.17500305E-1,-5.4227125E-2,-7.510969E-2,3.2565147E-2],"categories":[0,2,3,0,0,2,3],"categories_nodes":[0,11,15],"categories_segments":[0,3,4],"categories_sizes":[3,1,3],"default_left":[0,1,1,0,0,0,0,0,0,0,0,0,0,0,0,0,1,0,0,0,0,0,0],"id":45,"left_children":[1,3,5,7,-1,-1,9,11,13,-1,-1,15,-1,17,-1,19,21,-1,-1,-1,-1,-1,-1],"loss_changes":[7.4544676E-2,1.8062557E-1,2.9897493E-1,2.796224E-1,0E0,0E0,5.6998134E-2,3.3577272E-1,1.663355E-1,0E0,0E0,3.843948E-1,0E0,8.2226664E-2,0E0,7.2437847E-1,3.428191E-1,0E0,0E0,0E0,0E0,0E0,0E0],"parents":[2147483647,0,0,1,1,2,2,3,3,6,6,7,7,8,8,11,11,13,13,15,15,16,16],"right_children":[2,4,6,8,-1,-1,10,12,14,-1,-1,16,-1,18,-1,20,22,-1,-1,-1,-1,-1,-1],"split_conditions":[NaN,1.228307E0,1E0,2.28307E-1,8.288274E-2,4.6363134E-2,8.728167E-2,3.7659414E-2,7.1E1,-1.1321122E-1,-1.511589E-2,NaN,1.16670884E-1,6.2E1,1.6197212E-2,NaN,6.8E1,-2.145414E-2,-1.4348552E-1,1.17500305E-1,-5.4227125E-2,-7.510969E-2,3.2565147E-2],"split_indices":[1,9,6,9,0,0,9,9,3,0,0,4,0,3,0,2,3,0,0,0,0,0,0],"split_type":[1,0,0,0,0,0,0,0,0,0,0,1,0,0,0,1,0,0,0,0,0,0,0],"sum_hessian":[2.7964617E1,2.3554428E1,